-8.242398733004872469e+00,0.000000000000000000e+00,0.000000000000000000e+00,-7.182280092207973725e-07,-2.339747453893215953e-05,3.390894195065870666e-04,3.062645400935907428e-03,4.091189754964422859e-04,-2.573393608114144318e-03,-2.222909080397183178e-03,-1.860636187484260035e-03,-2.165543532296087441e-04,4.706600842195929118e-04,8.949675702885701500e-04,6.784705728551001028e-03,6.457852384807449830e-03,1.863695280045852621e-04,6.805333993195165378e-05,-3.529056594881200248e-07,-1.081884948541458399e-06,0.000000000000000000e+00,-6.202958261529482251e-07,-1.333976836633298938e-05,5.187937599341023041e-05,1.996572176085694914e-03,-1.486106733979381347e-04,-3.497583807175320969e-02,-1.481218237514210848e-02,-1.466583338754598453e-02,-1.668352741427647432e-02,1.013226776980540728e-02,1.175842574431350609e-02,7.852804206851894675e-03,6.503656882056932723e-03,-5.309495885699200279e-02,-6.622561158353720834e-02,-6.876075995597964036e-03,5.224312064569539872e-03,4.068280269654073016e-03,-1.234266050477298478e-04,1.131032935856950592e-05,5.038500914320668727e-06,2.393624981966144721e-05,-7.690136460888128257e-05,-6.290375522639080411e-03,-3.191788251542353877e-02,-1.388813617642911113e-01,-1.927726336415142017e-01,-2.738361117447219995e-01,-3.357543975552629845e-01,-3.309616590403636760e-01,-3.845566584784049780e-01,-4.274863918615674496e-01,-3.968363411822254938e-01,-7.185489773892568266e-01,-5.412820039097288038e-01,-1.202106875476328524e-01,-9.898717178157684371e-02,-4.744787424361886913e-02,7.598549854442519791e-03,1.333682464995904074e-03,2.100891882838430800e-05,1.206987740643001650e-03,-3.453819184640505909e-03,-1.185303190854828936e-01,-2.505208334641420009e-01,-3.865394495214325987e-01,-6.557699635996701026e-01,-7.585281127510181687e-01,-5.851599762038814934e-01,-1.113737533729001888e-01,3.982139114118016243e-01,-7.257791856475376280e-02,-4.030675639330079107e-01,-7.584809008027832977e-01,-4.523512338427525536e-01,4.851686959007295297e-01,1.854787848295162966e-01,-3.546781384761049649e-02,-4.740692023595753646e-02,-1.252053224096937901e-02,7.173113342363854325e-06,2.922240608583557241e-03,-8.706525901237580772e-03,-2.893055941556415545e-01,-6.799006078386937713e-01,-7.485608964756295114e-01,-8.949000866216200167e-01,-5.663461090502122097e-01,5.730341230492549398e-01,1.518747854430943844e+00,2.022667803861237346e+00,9.959292314574061944e-01,6.678259450484798077e-01,4.302677634022114561e-01,-6.082671195419887544e-01,5.135009469209013133e-01,9.623766637337611840e-01,-1.523189848580311020e-02,-1.626848793437588037e-01,-3.937260266882243454e-02,-5.330563941519970246e-04,4.525914464697546741e-03,-6.115960242368796013e-02,-5.600076389912694852e-01,-1.222351823337531229e+00,-1.270611900205915967e+00,-1.378531587772992673e+00,-3.233453719965672102e-01,8.551838439801616731e-01,9.748970509192089740e-01,1.530370381618425757e+00,1.967380125945781932e+00,1.032520657841847322e+00,1.431149923503256538e+00,2.483019435417083143e-01,-1.741991512113447993e-01,-4.707484795933716826e-01,-5.989425353657841233e-01,-3.577357656137902797e-01,-3.950981430498681085e-02,2.484665633231006310e-03,-2.761955097514586649e-02,-4.536276726253701819e-01,-1.372367488078296560e+00,-1.578254537209144104e+00,-5.782238932831003098e-01,-1.141401842486846618e+00,-3.338004644044944014e-01,1.587634961003663719e-02,2.774363843356422721e-01,1.374199781045408464e-01,7.166014676527701077e-01,5.602270398053476042e-01,2.005096107436075692e-01,5.783167447914244058e-02,2.123941224999030264e-01,5.925028842796328243e-01,-1.010299679725057409e+00,-7.541113061200106493e-01,-4.521389836419947850e-02,4.120973609379238907e-03,-3.540265445645109088e-02,-1.036458920644216519e+00,-1.668119454806356039e+00,3.938316655227591667e-02,1.020985134734803790e+00,-8.021219683022212665e-01,-4.475099817006456537e-01,5.286742428902946322e-01,8.884932376575347401e-01,1.116605011315109808e+00,6.017429352033505374e-01,1.842300567031578407e+00,1.181315741090634974e+00,2.549573974065838744e+00,6.564942385145851045e-01,1.832676093230072523e+00,-5.276372966138273002e-01,-1.217532495947524662e+00,-1.754281476904074877e-01,3.412666627210961083e-03,-3.930804894048287035e-02,-1.343471410935681565e+00,-7.029568881250334300e-01,5.548984305283979346e-01,-1.045701905319060265e-01,-8.925926610922708671e-01,4.093545649671767594e-01,4.127817070595615756e-01,-2.649315218115942949e-01,1.400330151864068062e+00,1.244490755082869882e+00,1.137253220876904170e+00,8.972036321509102574e-01,2.194398291676068258e+00,2.993908448789184829e-01,2.088270429063879163e+00,-5.529082375984931130e-02,-1.148926431847377971e+00,-3.112602605838850622e-01,7.263061024221318003e-03,-1.489336484894022705e-01,-1.030684475008846190e+00,5.832403219017113782e-01,8.679742228188346287e-01,3.351816388076935271e-01,7.987356892766026562e-01,7.230749592807521609e-01,-1.003734300877736185e+00,-1.412334079327061787e+00,-5.221184484867283926e-01,-2.932389717728179246e+00,-3.308486045895210115e+00,-1.923653100795302162e+00,-7.551726776771074123e-02,-8.752453937995454680e-01,2.537454631618224710e+00,-2.430749185494709697e-01,-1.047334789604064120e+00,-3.690374071489685437e-01,3.744030927780379620e-03,-1.806854955598181933e-01,-5.718548957608021732e-01,7.456156319132589694e-01,5.866112853481144640e-01,8.069314179474067483e-01,7.523060058610746559e-01,-4.780589974333795955e-01,-1.844926333750865233e+00,-3.114941096930708753e+00,-4.219677955238005040e+00,-4.888159724856429023e+00,-3.088943726868674133e+00,-1.753746161062873288e+00,-1.889449433141658474e+00,-2.402255435122525040e-01,1.176457208494994022e+00,-5.792780924328468917e-01,-1.293053275687848114e+00,-2.161706161607249155e-01,1.138119891012455941e-02,-2.895805561550858775e-01,-1.123129381091075851e+00,2.396694908395168300e-01,1.052782873468174341e+00,9.198232974104193493e-01,-1.695281816180455592e-01,-6.139608629703348086e-01,-1.588720827225341470e+00,-3.367859373823731239e+00,-3.270480747883980577e+00,-1.645860405634530510e+00,-1.512166468591092938e+00,-9.989833622936417079e-01,-1.459589594063709361e+00,-5.431499494284249829e-01,-1.049359882321636794e+00,-1.022211928781204815e+00,-8.890325361417221739e-01,-9.668583891622235804e-02,4.232422744275068927e-02,-5.259179562887090764e-01,-1.245671861873148156e+00,-3.896962207397385303e-01,6.018130615814569762e-01,1.268464806088998920e+00,4.928901554974906007e-01,2.057246144161180901e+00,9.614935778682540679e-01,-2.010929224970583462e-01,-9.216857930266003640e-02,-3.860072392449859224e-01,-2.867345794208610577e-01,-8.203071750912700466e-01,-1.469981708226836048e+00,-2.409745413951855930e+00,-1.084440769495119250e+00,-5.456555033233755347e-01,-4.776480991818026767e-01,-9.784435659825291287e-02,2.733505242432360954e-02,-3.171696650508740722e-01,-9.571160962831483099e-01,1.547027575824841406e-01,8.915141601744224209e-01,1.036676988391232346e+00,7.685453779641953087e-01,2.414017076502283032e+00,1.804023430359038338e+00,-3.788298235574197870e-01,-7.346805920295776948e-01,-3.902997462069751622e-01,3.996994764657239574e-01,-1.964351813882252995e-01,-1.839498106798275412e+00,-2.058375403282780791e+00,-2.966977225000289597e-01,-4.004076464637600363e-01,-3.368825370625924687e-01,-1.608398688950708755e-02,1.027397926100458853e-02,-1.506028241683277646e-01,-9.228697795376804569e-01,-8.703344387591110953e-02,1.511170597756856582e+00,1.229986672144843113e-01,-1.822794966226982893e+00,1.516389794990215534e-01,8.177728370741814690e-01,-8.474462076222049056e-01,-9.720684578670604203e-01,1.486821175915064783e-03,1.638585530891112363e-01,9.415661666761684923e-02,-1.854840046094771155e+00,-1.175260342362040689e+00,-3.402006168721183887e-01,-7.075266305692450297e-01,-2.702805406506974539e-01,-7.348217756042312726e-03,7.573223590853207961e-03,-8.589237311173855693e-02,-8.757337487731819969e-01,-6.261967011866881316e-01,1.071669454218715511e+00,4.361004442046497592e-02,6.751236799314810910e-02,1.663924333145812007e+00,1.480456679859698088e+00,9.396893225530250637e-02,1.219933265522456789e-01,1.265870440668135644e-01,8.592230492918057072e-01,5.105189648175487704e-01,-1.101867267281821050e+00,-5.263565325138227502e-01,-3.710395182016806293e-01,-3.633792284495450664e-01,-2.148779247730156217e-01,-9.623809869403741890e-02,9.966674447309013200e-04,-6.212344912124808695e-03,-2.455350169947256023e-01,-1.854840887071833866e-01,-9.823328880735512914e-02,-4.958147536749373252e-01,4.157381663429092766e-01,1.681420682929175126e+00,1.631166966643457616e+00,1.341222559026148620e+00,1.481018748404298035e+00,5.917463667974379726e-01,-2.319539363929235820e-01,-1.424528125779938703e+00,-1.487319395235176644e+00,-1.044336123051192500e+00,-4.686257426346078780e-01,-7.690267450452192843e-02,-9.695658294170582392e-02,-5.229765408089614293e-02,-1.053383276211537306e-04,-7.315322935257243583e-04,7.338377878912602514e-03,6.302296884466949967e-02,-8.812760998569038051e-01,-1.135518535148045238e+00,-2.541965865375170330e-01,2.441591115597295247e-01,3.030368050933484603e-01,6.398075230061430752e-01,7.465238975746878447e-01,1.138979651382159286e-01,-7.230970746169965713e-01,-1.044657446424871683e+00,-1.028525305877377782e+00,-6.425865511379749151e-01,-2.926225313880325141e-01,2.634661302286747664e-03,-8.749258312765444828e-03,4.084387585507491319e-04,-1.434999200839230591e-06,3.414987707111831082e-04,4.688909225386084581e-03,-2.810957371473862473e-02,-6.440392807070468573e-01,-7.730343028492093760e-01,-3.901654378475087892e-01,-1.136757102009894882e-01,-4.947546649541573194e-02,-1.039178818522000225e-01,-1.041107019951201806e-01,-2.518343701456626782e-01,-3.157806831209373222e-01,-8.550716149358095208e-02,2.666244444541577413e-02,5.282437780957047191e-02,1.694295904163809971e-02,-7.823870111249315445e-05,1.274472353270827973e-03,4.926208630467893449e-04,0.000000000000000000e+00,-2.831007997045486451e-05,-1.044369255367267143e-04,1.419683710471045072e-02,-1.743199445626971711e-01,-5.030915491447884857e-02,-8.840991407377141176e-02,-4.613129016711781799e-03,1.557757515465383463e-02,1.122203134192191996e-02,5.323464738546215477e-03,1.901616647609895988e-02,2.606050214178780994e-02,8.681230873510442647e-03,7.436524503816009657e-03,1.401805249295755285e-02,2.986904231186594903e-03,-5.936995155526272232e-04,1.700270199458610201e-05,0.000000000000000000e+00
-2.353239656995650186e+00,0.000000000000000000e+00,0.000000000000000000e+00,2.050301647979738516e-05,-1.881761966359317352e-04,-2.135534290269013329e-04,1.968106016415855381e-05,-2.937641799658362481e-03,3.096174467099523705e-03,-5.449426712447660165e-05,2.799919281885439792e-04,6.656653799594319093e-05,3.008029099415563803e-05,5.941923111081303115e-05,3.318737954020198008e-04,1.629469229795723825e-03,2.071196553797483107e-03,1.778940623381364446e-04,-2.883197189818593280e-05,-1.276634357622632790e-07,0.000000000000000000e+00,-2.150357448451380271e-08,5.096662147019389284e-06,-2.829591555564464666e-04,2.079259139757743974e-03,2.526674559935866791e-03,5.846058343700262809e-04,-4.666045867231204125e-03,1.074586309571023317e-03,-4.472063211084434733e-03,-6.969857123002570244e-03,-1.040535001550664312e-03,1.664901797762322446e-04,2.365170591362406082e-04,-8.656299340896771643e-04,-1.453812564561784287e-02,-1.951295158920030373e-02,2.561205579763589993e-04,1.615075653268262506e-03,2.661918995503864227e-04,1.013935475384911735e-04,2.863872262086822976e-07,-6.261924806917372802e-05,2.091499593606494336e-04,4.872032008167882268e-03,6.728566621044193563e-03,-2.874691217727366917e-04,6.467291816552011565e-04,-2.613840013727788611e-02,-3.717675217246650676e-02,-1.916596871205368882e-02,-1.309501037098675762e-02,-3.137032477438382767e-03,-6.140187186600950912e-03,-4.952406141591329108e-02,-1.029752093297591764e-01,-9.077155939183163824e-02,-3.427395379228601047e-02,5.401039343771667223e-03,-3.372063811910037262e-04,-5.244606942495066548e-04,1.378237359647491771e-06,-1.131093670010611134e-05,2.539761524119409520e-03,-1.871720947485333228e-02,-8.552674361934468894e-02,-2.174051247027539990e-01,-3.043558038657804832e-01,-1.725778788676232134e-01,-1.560488576767409263e-01,-2.399016959902543211e-02,3.082693468804343501e-02,-5.358807135004019923e-02,-8.158777574256782794e-02,-2.876720104737651718e-01,-2.866590154999786866e-01,-3.016688676870208918e-01,-1.843376506428911210e-01,-1.839650003566544456e-01,-2.390982316225917156e-02,-8.605799552332928440e-03,2.496256702720655619e-06,8.833090829761029673e-04,-1.524753192020917962e-02,3.537877529419051342e-02,4.474343343152398234e-02,-6.533987712446347462e-01,-6.565216946942862286e-01,-4.682886389861801169e-02,2.553667579466678550e-01,3.787132513419096402e-01,1.802085338619865973e-02,-1.747890635092941847e-01,-4.464882590608025836e-01,-1.019577175830978399e+00,-7.088093518146025840e-01,4.248267180873425697e-01,3.997035466853668395e-01,-1.354059537254559686e-01,-1.124110145892262269e-01,-2.147645542188555273e-02,-2.100302349084177774e-05,-3.478864161501088025e-03,-2.683968569188581454e-02,3.429422588186251675e-01,8.263052564646967968e-02,-4.759869389420620656e-01,-6.771207135030190560e-01,-1.915508172000751352e-01,5.522727276903304228e-01,3.565180346136785361e-01,-3.376654567589050249e-01,-4.128544071740883892e-01,-6.232737290893421989e-01,-1.372292285484671748e+00,-8.856236526838832113e-01,9.363673601631428145e-01,5.546679523248109200e-01,-8.731114888570379318e-01,-3.594129864559888476e-01,-2.315932425698455019e-02,-3.897515056512870253e-05,4.352939134408479252e-03,-2.157424811262272091e-01,-2.213539842003269809e-01,-4.070411034410382212e-01,-9.163348339353960537e-01,-7.104148572417250396e-01,-4.286256600319023335e-01,-1.046192500599936320e-01,-5.619176156333469674e-01,-7.480730513740667664e-01,-7.170837887257909271e-01,-7.346674547888698559e-01,-9.148302580402268847e-01,-9.078669423302094810e-01,-4.523220106546350094e-01,-2.498703119228457559e-01,-9.127030522737911156e-01,-5.329526213018529468e-01,-2.147837844705620045e-02,-7.262020106830926591e-05,1.584792157543896823e-02,-4.887949198257450223e-01,-1.025086518957060155e+00,-9.884188167335730135e-01,-9.705842649639753184e-01,-3.548571766760264534e-01,-3.307579955125361515e-01,-3.299109224144926023e-01,-1.761258466761859598e+00,-1.731540195761324119e+00,-1.074146335914162753e+00,-1.050701977548919919e+00,-1.617330398084253773e-01,4.820193704284397307e-01,-3.253178039465772220e-01,-7.467267869637830291e-01,-7.474553942045201183e-01,-8.567674003468074284e-01,-3.111530511260266960e-02,3.225077754755174397e-03,-3.172993270269076210e-02,-3.273165244000955099e-01,-6.987788742636872330e-01,-1.244938090991424051e+00,-1.034001973812598951e+00,-1.224182526252938497e-01,5.222961132732809042e-02,-5.262863759106236605e-01,-1.589638789929775031e+00,-9.220002671745058942e-01,-4.228097613855812398e-01,-7.763364330365772892e-01,-5.523885238681616183e-01,1.332935118357634341e-01,-3.176200883613114478e-01,-7.192729879172070628e-01,-1.019643142338238828e+00,-1.065858060948622787e+00,-1.596488982130483125e-01,6.055219718691698741e-03,-7.016464463773632032e-02,-8.351732678857366754e-02,-2.715992957481943026e-01,-7.780045741566593565e-01,-7.703878975633945414e-01,-5.893724084673487296e-01,-6.868346520119511522e-02,5.080694038852993089e-01,1.109969888212596123e+00,1.262390181011707968e+00,6.960765019461254699e-01,4.388155434083276241e-01,3.992093515740232634e-01,4.358764166939196882e-02,-6.984608766706604799e-01,-4.642438443467225562e-01,-8.055697148152419773e-01,-7.749483760475310845e-01,-5.504021937688343552e-02,3.406062064685826639e-03,-3.970120763730686231e-02,1.619713101865942195e-01,-2.314863078127559967e-02,-7.418565519375229789e-01,-2.599049019512420511e-01,1.052078340985308225e-01,9.493430464014688264e-01,2.378908425591426123e+00,2.506336278456656963e+00,1.234224461256758776e+00,9.644276213950732091e-01,4.783385421934370774e-01,5.867588209043965719e-01,1.742088572501553356e-01,-2.803987213359253050e-01,-3.199206163788552160e-01,-1.133130601790636849e+00,-6.050802383612134960e-01,-1.784803382199777813e-02,2.565909787395842870e-03,-7.794182234612764826e-02,2.458964991249363574e-01,1.073405422357524008e+00,-2.411665041747697025e-01,-1.017695193132122755e+00,-3.912184802154849428e-01,1.012792822602904597e+00,1.233716138645797100e+00,8.054266578964984769e-01,3.330729578110299127e-01,-3.333858897774995278e-03,-1.164776302051045320e+00,-8.741267740695819466e-01,-1.691867557734881566e-01,9.658332237965329414e-02,3.612643402680605909e-01,-8.910427346620692912e-01,-5.646580226605651953e-01,-7.017583257990486767e-02,1.027300273735114698e-02,-1.159913035683827476e-01,-6.042081182188254740e-01,-2.627977458184648230e-01,-4.868798332251701999e-01,-1.355739141101884204e+00,-5.320658912525212392e-01,7.583827999930777518e-03,3.700667146108061467e-01,3.657626530767985606e-01,2.609108413473085752e-01,-1.840717202330975633e-01,-8.802946373523954371e-01,-5.577896168076758032e-01,-2.167567737127008565e-01,4.574441933011043349e-02,1.010809060673546922e+00,1.862709897492030586e-01,-2.087905647848715129e-01,-4.027882053916213845e-02,9.356441810630864581e-03,-1.055031492683356775e-01,-5.755470515175640234e-01,1.316519645196511865e-02,5.359759275977747928e-01,7.247300555952709278e-01,-2.174887170366545941e-01,-6.221746046171934275e-01,-1.896503154828264870e-01,-9.010589459512455823e-01,-1.029459749600931895e+00,-1.112985193028264153e+00,-5.267455547308047548e-01,3.764792148445008091e-01,4.518057670436325113e-01,-2.907443610458546046e-01,4.747886788678525316e-01,3.452022515569036498e-01,-5.563596148927520135e-02,-4.766785102702164427e-03,1.916454741104882268e-03,-2.280413761301773590e-02,-2.587920269027454978e-01,2.306983088693724884e-02,4.739758309483199650e-01,3.437608300705911890e-02,-1.098785225725786630e+00,-1.184979271087625463e+00,-1.202223469016743040e+00,-1.013139721438244933e+00,-7.241649110389095645e-01,-8.057096644199364111e-01,-5.231191722435818425e-01,4.364869504660626731e-01,-3.910535343480259773e-01,-4.950151602580094568e-01,3.684239590862815050e-01,-4.316527327906898026e-02,-3.381981934196735123e-02,-1.461568057891438500e-03,-4.162885217176893980e-06,-8.552327706082846898e-03,1.631249726613126635e-03,1.744776290554050369e-01,1.113371302835648030e-01,-2.825447807738568629e-01,-1.235019882041717532e+00,-1.015196700337626323e+00,-6.099431732132202244e-01,-4.592052694381886235e-01,-4.627413469401603918e-01,-5.515818457806153097e-01,-5.598181713113509206e-01,-3.839999972999417754e-01,-3.768393955108044202e-01,-9.112723439851595775e-02,4.885957099470627368e-02,-1.875156844330257422e-01,-5.840315056366802288e-03,-2.473282243636392569e-03,-2.183005685758113246e-05,-8.150533548257119995e-03,4.913268848282865975e-02,3.609025239350284742e-01,-8.493840177265697677e-02,-8.237838866590619924e-01,-1.072925669722545550e+00,-5.896519728676649086e-01,-2.874537330463320384e-01,-2.481555662244534222e-01,-2.056021256399857833e-01,-2.736244876411230154e-01,-4.180400220898797814e-01,-9.975992333433537917e-02,1.950600302459340463e-02,7.183067970544552983e-02,-3.765016044926162986e-02,-3.672254095362686294e-02,-2.131681458387890346e-02,6.686564055011200711e-05,2.734040258929220431e-05,-2.443003170286507566e-03,1.969095187816080617e-02,9.621148745383058254e-02,-3.297776076194172679e-01,-7.414699349851220367e-01,-6.576021822468788303e-01,-2.155469384509212105e-01,-1.160331757159615146e-01,-1.684603158189389160e-01,-7.038308000922682828e-02,-1.154348856244090116e-01,-2.571501326253048947e-01,-7.251696866452939094e-03,4.304982594328417567e-01,4.633412407821111967e-01,1.025675412040552154e-01,-2.219737858902765676e-02,-1.110867605746562389e-02,8.844661404789901874e-04,-1.040570151439283223e-06,4.757295210178549296e-04,1.712768417135249015e-03,-6.271600655263810664e-02,-1.506738514614350821e-01,-1.847970200567890797e-01,-1.917742015351355800e-01,5.692529039721251627e-02,2.785341966792651350e-02,-5.110230872871195096e-02,5.593224183479133388e-02,-1.200987680649864657e-02,-9.461746333984365209e-02,-3.323138818983056852e-02,8.794331316304666857e-02,2.703196367175293435e-01,6.680764624466081769e-02,-7.572152062507989632e-03,7.104111495648205831e-04,-3.792880078757085671e-05,0.000000000000000000e+00,-3.059453909620842797e-05,9.530933989749487993e-04,-4.862705794853672617e-03,-1.425223780363918911e-02,-1.639299160336259512e-02,1.570681969395208624e-03,-1.122284846930625933e-02,-9.678510475934935103e-03,7.691484264842467786e-04,9.586797074259894441e-03,1.917193179195083880e-03,-5.381075152313194096e-03,6.767988669277522074e-02,-3.122565778807083600e-04,-2.295420660593367260e-02,-6.047919928153644778e-03,7.380515629983119092e-04,1.281230192881447843e-07,0.000000000000000000e+00
-4.069098648756339642e+00,0.000000000000000000e+00,0.000000000000000000e+00,-3.840435876356272876e-05,5.688384727395508515e-04,-1.554531912884268450e-03,-2.498413301077598639e-02,-1.271460361354945744e-02,-1.982886722028595269e-02,-2.169620675622840368e-03,-1.147324729362648142e-02,-4.409780677783217868e-03,5.996141027887229823e-03,8.836396269984933549e-03,3.795817543570700545e-03,-9.656580711988030710e-03,-5.233888776095150727e-03,5.469245726284705303e-03,-1.520355755582788158e-04,-3.038371230699768422e-05,0.000000000000000000e+00,-1.794808901093699155e-06,-1.091660296325770434e-05,9.025688676517822041e-04,-5.891116997196178123e-03,1.994467154034574793e-02,2.317840439958252785e-01,-1.257255422425121172e-01,-2.673924206735325271e-01,-4.067475552165797370e-02,-4.614832211320846894e-02,-4.037926534937177903e-02,-9.669397971789271684e-02,-1.012351007902422134e-01,-4.157351773608745221e-02,7.926086514284873263e-02,5.518782271499240999e-02,-6.409326116926367112e-02,1.068996700056189068e-02,1.693381504822294307e-03,1.431152974797899073e-04,5.289631376853299754e-06,4.587914690994057557e-04,4.798185246875480078e-03,-2.932630911893637643e-02,-4.986433803852370894e-01,-3.818363771511406601e-01,-5.918132507801667774e-01,-6.698892042220166987e-01,-3.751191213223516452e-01,9.670191851311100983e-02,6.319077838847410034e-01,9.288953495602396693e-01,-4.419081534994349220e-02,-1.409590742106950012e+00,-5.336400160447138941e-01,2.007414702197650169e-01,-5.473736935929824909e-01,-1.480826025001847346e-01,5.519629206437121766e-02,-4.530322728189713211e-03,2.399006431833083475e-04,7.081849459694526672e-05,-7.194896874909122164e-02,1.114330223907079587e-01,1.716258152272145676e-01,3.351931485357342311e-01,6.945621848023452172e-01,8.916252617392704805e-01,2.444658860026309999e-01,-1.989410979190647133e+00,-3.682979979339174870e-01,1.695457913511796644e+00,2.351117389787917566e-01,-1.690786468280642829e-01,8.368605095931005433e-01,-2.622020186678222231e-01,-5.550524686140718700e-01,-1.164213403650866674e+00,-5.117646453371884618e-01,2.558595617776694350e-02,2.961285778098785189e-03,-9.202177204452863246e-03,-1.771341896677706418e-01,6.581831322526695560e-01,-3.457880910060953106e-01,-9.844944459344049381e-01,8.354207341600936032e-02,-4.464363618599981876e-01,-2.778203307635914499e+00,-3.419451133208865734e+00,-1.249843402363282480e-01,1.043329935980276790e+00,1.380365917259095410e+00,3.884033779248067808e-01,-1.956760859099587468e-01,3.695220407571621068e-01,9.519119901401769113e-01,-1.355273721719661317e+00,-1.532513579858830743e+00,1.629876398497689602e-02,-2.138018997149301187e-02,-2.089743968630388415e-01,7.247904339176310107e-02,1.222712817416429898e+00,5.418497138873969998e-01,6.239864915222640418e-01,6.694238569618535806e-01,-1.372743822515347101e-01,-3.959682451448729879e+00,-2.877804619504521266e+00,2.279371137128260116e+00,1.229662457137082221e+00,-3.545628845739275947e-01,1.866411051467689708e+00,-2.663936435868745171e-03,1.609543154373898888e-01,2.200402973723392996e+00,-1.712770431465185719e-02,-1.922776334143077248e+00,-6.223369641366098548e-02,-1.182052960100409000e-01,-6.191787380989186573e-01,4.508681874917203070e-01,1.342447641709492601e+00,3.192956821385091459e-02,-3.492344163362886000e-01,1.170016032121240057e+00,7.123498600377656809e-01,-3.441556575456413025e+00,-2.051331160287614086e+00,7.132527064114757565e-01,3.358322156934626657e-01,-8.156959821546655443e-01,1.184757099059450258e+00,9.025370292409382600e-01,-1.450073202286985274e-01,-1.377298545067079605e+00,-9.600859182850339790e-01,-1.725581263909630847e+00,-1.265328357127642744e-01,-7.978211365315765469e-02,-5.214348876180084913e-01,1.360885031750861174e+00,-3.430407742497310619e-01,-6.295911389861171825e-01,6.644011043791248072e-01,3.667684949063107491e-01,-1.678318981587767836e-02,-2.275828086350603296e+00,-5.896450842748802712e-01,-1.699102206241533741e+00,9.603324195020953580e-01,2.179308750132080419e-01,-1.982261816051733294e-01,5.006117583593129305e-01,1.428170625334213462e+00,-1.113320341705377636e+00,-1.227842444425629731e+00,-1.579078966752704316e+00,-2.271303198113489574e-01,-4.601010793222844175e-02,3.919574153156901164e-01,1.312116845220008710e+00,-9.792718784670139121e-01,7.541511744168557518e-01,7.920090370800216828e-01,-1.140807266011795384e+00,9.086496899191732757e-01,-1.343236861840395591e+00,-7.725669184695225233e-01,4.424242621940155384e-01,1.633195780703072808e+00,1.056318286786935845e+00,1.070998160326771309e+00,1.037680694399843118e+00,8.992120201309102834e-01,-2.628660499416974883e-01,-1.046344059136212534e+00,-1.174594416347104930e+00,-1.296954291941598836e-01,-7.095255056634479363e-02,4.798843678829172177e-01,5.841645354753973729e-01,8.719892324803780737e-01,1.943804495897903939e-01,-1.128888686066647828e+00,5.109214295507982229e-01,-8.663006970555272579e-01,-2.480427178224568152e+00,-6.534140980419395062e-01,-2.797762756422319530e-01,2.903914412455805838e-01,1.329463250017646758e-01,1.330062716877788542e+00,5.459128117398626134e-01,2.523363868521892872e-01,1.438534648793026727e-01,-3.890784181623680449e-01,-1.095857792842608758e+00,-8.480748652787660491e-02,1.351000247990274405e-01,-1.607221735024288334e+00,-5.327595228036644537e-01,1.069891437453343697e+00,2.955670628000459654e-01,-3.417560193638998212e-01,7.610845865191842030e-01,-8.778879657276316140e-01,-6.997595955217780217e-01,-1.831850430515573613e+00,-6.991147540012928596e-01,6.495323278815025025e-01,1.884038049136604887e-01,4.528908897475641404e-01,4.394831210952612199e-01,-1.409359361247468190e+00,5.245785501171007677e-03,-1.925805873823423220e-01,-1.399434941327671211e+00,-5.794141600827466126e-02,4.108583520000542721e-01,-1.122879536489054919e+00,-9.353784453470068705e-01,1.144256752115093007e-01,3.783527545935824743e-01,2.512659602506013209e-02,-1.265841707621822909e+00,-2.804184327920912767e-01,6.806703970601087894e-01,-3.870741886302479506e-01,-9.738342375016527663e-01,4.376670142754458537e-01,5.284300760347109271e-01,-2.960124146566987524e-01,4.566288165853923942e-01,-9.227783040081464216e-01,-5.693943877158544886e-01,-1.179027694616805455e+00,-1.733690131882466012e+00,-1.432085880912566944e-01,1.215820553481223032e-01,-9.363153518398912301e-01,-1.663810136259568084e+00,8.809209079604122250e-01,5.370637782599202437e-01,-1.515351999503261604e+00,1.181516611281832274e+00,-3.838231537468831944e-01,-1.615012548408418125e+00,5.280688318771989964e-01,5.531289073915501842e-01,-1.352817203557536541e+00,9.731733733175491619e-01,8.331576350803220343e-01,-6.670134533736860050e-01,4.833067467101899717e-01,1.123911250474351364e+00,3.735062036457738044e-01,-7.088516393787616110e-01,-8.128492295778495802e-02,8.617428856464401377e-02,-1.335034303299162950e+00,-1.934208865137252875e+00,-7.301349296154715507e-01,9.597306037847871396e-01,-1.035274680053738239e+00,1.698941847847885711e+00,-6.231308632161319805e-01,-1.826463173604103041e+00,-5.284078273168825168e-01,-1.076557819884018441e+00,5.722050564565599462e-01,3.826607125529857961e-02,-1.884485726192447197e-01,2.494032424693030658e-01,4.144137297474891346e-01,-8.411892143853896275e-01,1.317075899354587687e+00,-5.956042043028261096e-02,-1.042300325725802890e-01,5.095868764088095498e-02,-6.830513481233063677e-01,-1.685319471869366759e-01,-1.220488976930858449e+00,-2.150146952074274698e-01,-6.713114372818047570e-01,-4.147756678320385637e-02,1.340288289770344088e+00,7.675373402087136698e-01,1.080833382599060977e-01,-4.659048361498789870e-01,9.047721031264983615e-01,-1.018884277485802903e+00,-5.891556248804222795e-01,1.411911757393518707e+00,7.231405121882995557e-01,-1.482223270687997196e+00,1.257126145670576900e+00,-4.554802245565376384e-01,-3.143678096066010452e-02,4.693517847620076039e-03,-1.717598378375806423e-01,-4.662370343245565985e-01,-1.606681305397875459e+00,-5.839080640545016854e-01,1.204063746087116415e+00,-5.076202492620268680e-01,1.778738634782819905e-01,-3.527095498553514674e-01,-6.200226430407176359e-01,-1.174147885353250320e+00,-1.326835125755851386e-01,1.013309284494227969e+00,3.008380912439468369e-01,2.060683177264321653e-01,1.229973320875234366e+00,6.283913093548835205e-01,4.480859365602034017e-01,-4.056549864053540788e-01,1.296660108383335987e-02,-2.727117757626543355e-03,2.116435971790484732e-02,-2.645572568138744862e-01,-1.447676676768481663e+00,-1.395393063531833677e+00,-7.483149788217454690e-01,-7.311946856639993664e-01,-6.523011206537066009e-01,-1.772707035669834674e+00,-3.259593429662419051e-01,-1.749919752047815580e+00,-1.812256697343819445e+00,1.908437099934946257e+00,4.554319139986866272e-02,-3.311871853934360566e-01,1.324608289602672739e+00,1.101274755313216502e+00,1.646699733460022519e-01,-1.828935747983696236e-01,8.796102630039335027e-03,-8.037225835324129149e-04,1.620842453559306201e-02,-3.211094696365583701e-02,5.119745884507023725e-02,-7.718570341637717158e-01,-2.067026650999197468e+00,-1.972378158757037925e+00,5.643031426709880227e-01,1.019321745891082376e+00,9.439862455738211588e-01,-9.971402579460225679e-01,1.196835157423435103e-01,1.478249484590486995e+00,1.836154896028543149e-01,2.938395605170083802e-01,4.580583592800892556e-01,1.168086041669127301e-01,-1.124421251498906316e-01,-2.740614487577320429e-02,2.217836734999884245e-03,3.819068758755113054e-05,-1.278819944876547062e-03,-5.014416459741993445e-03,1.587853457116797651e-01,-2.755817848760054242e-02,-6.724073636175209590e-01,-7.509682742430101587e-01,-4.175995613680810736e-02,1.061910633151962990e+00,7.797955220895309569e-01,4.836277042037165352e-01,2.614757638322231514e+00,1.837005370104672020e+00,8.673519477611263406e-01,3.533757955731530731e-01,9.734603075285280793e-02,4.152324221345916888e-02,1.019895037330461468e-02,1.531183476500335480e-03,-1.439801361452827514e-04,0.000000000000000000e+00,4.615480951147540243e-05,9.890281470481933693e-04,-1.302558018075000712e-02,-4.026829999549054462e-02,1.113142352106879542e-02,3.472460725885263139e-02,-1.950648956452070981e-02,3.720506798003698351e-02,1.204048056866338784e-01,2.505926969047684860e-01,5.600537433327819059e-01,4.430680429514483598e-01,-2.002731326072025239e-02,4.433306405796808014e-02,1.322128281694283890e-02,2.119135456475854107e-02,5.667764718513339586e-03,-6.492878313933422114e-04,0.000000000000000000e+00
-5.885409425833380226e+00,0.000000000000000000e+00,0.000000000000000000e+00,-1.167342541275681481e-05,-2.388130037841713731e-04,5.463848306943654837e-03,2.754977299650758840e-02,-2.602947657414383595e-02,-7.526326113667246472e-03,-1.081632847536984510e-03,-1.700796655765829044e-02,-5.298067726917474185e-03,-4.644328666632491914e-03,-1.867359736349699303e-02,3.056018042238851928e-02,4.801156027477283122e-02,-3.376701821744947877e-03,-1.184202320119494582e-03,-2.234413484005206568e-05,1.164835896552680224e-05,0.000000000000000000e+00,-1.449880587416309363e-08,6.392269878944362094e-06,6.168122282892668333e-04,-5.363858950359213194e-03,-1.854185807035054270e-02,-6.305019155902143180e-02,-1.660422194991225397e-01,-1.275415084703836466e-01,-1.115515003582638609e-01,-1.050404939213218647e-01,-6.011796530422317680e-02,6.566384509684530801e-02,1.797479664432607982e-01,-3.968024735477712617e-01,-5.649911999669011697e-01,2.683910897658284278e-02,-1.763000727076038943e-02,-5.041290471379483717e-02,-7.363578811702209750e-03,9.351308898926996224e-04,5.538359322650081295e-07,-2.702468785336372510e-04,-1.068394907271236725e-02,1.046465949104375959e-01,6.365290954961831948e-01,1.334426672335397246e+00,1.091915370217948933e+00,5.208496142094455328e-01,-1.478527298537979928e-01,-1.198499606631592274e-01,-2.314115460797378232e-01,-3.812609133241368076e-01,4.505528359214748257e-01,9.158318917896233202e-01,3.873749564375009724e-01,2.943332435760671606e-01,5.970713482278998674e-01,1.010715507993609874e+00,4.912885224542094115e-02,-7.269230676341715061e-03,1.424254047431560456e-06,1.912903080151769856e-03,-4.525019903757718231e-02,1.231442203903924670e-01,8.657192142085609055e-01,6.126015342528315921e-01,5.579300654117768099e-01,-1.238620335518851590e-01,-9.873488738986105906e-01,-8.320587155694516568e-01,-8.722399983634232523e-01,-2.851889400044319012e-01,1.464609072319707161e+00,2.179838765106910436e+00,1.997160106912235555e+00,9.779911701549574843e-02,9.807807832677064575e-01,1.997315232654881534e+00,3.236322589584705312e-01,-4.507607115121019248e-02,-1.006859661557639210e-06,-4.379643787614862990e-03,-5.603737891829351642e-02,4.006670717860312814e-01,8.429909978259618741e-01,-1.422565899894791784e-02,1.083444263883390324e+00,1.250013646093905750e+00,-1.551368477251040767e+00,-1.621925169321782434e+00,-1.477167528858799317e+00,-1.400691882242804054e+00,-1.510845151748648196e-01,-2.887762738697144949e-01,1.645326408441530441e+00,-1.672498103077970505e-02,2.652558037660315837e-01,1.599727075415799060e+00,1.597169284515378151e-01,-8.798148595436119934e-02,1.434218240433524289e-04,-1.600514587393282381e-02,-1.240661028165166990e-01,7.665312085190464364e-01,5.983180921164888977e-01,-4.172846830042307720e-01,-1.619791548485591259e-01,-1.662012419985365030e-01,-1.680732446468018448e+00,-1.784393909690235036e-01,-1.103789771593253199e+00,-2.278590658951596737e+00,-5.875747928339243309e-01,-4.074992605174674321e-01,6.851532581717814097e-01,-1.064613983362840077e+00,-2.438403107814409582e-02,2.854608645920932553e+00,2.198742287800467821e-01,-1.551109058968212218e-01,3.219983202110011499e-04,-1.277785847717710990e-02,-2.140860070150011341e-01,-5.153862833004283495e-01,-2.212378251792420369e-01,-1.798748023432678589e-01,-7.882658607304039444e-01,-8.255591476479451352e-01,-1.050463471126478199e+00,-3.509063371577845203e-01,1.341242008250222328e+00,-1.006996146906453227e+00,-5.165293929806802353e-01,-1.355720594832664494e-01,5.579825333863495107e-01,2.739377730789600562e-01,2.353811418898267560e-01,5.969381064725340913e-01,1.990289958069554332e-01,-1.655740148967606573e-01,3.928431299591438487e-04,-9.922609491986178129e-03,-1.564451424038315868e-03,-3.066078219903308755e-01,1.354253773974945396e+00,-2.038578051207990682e-01,-1.823702562091268076e-01,-1.416707249510426481e+00,-6.040682265691446062e-01,-9.438264162317905326e-01,1.555028344440682608e-01,-1.602515412073469703e-01,-2.660094984392971984e+00,-1.157285485754232734e+00,-9.850033383627084804e-01,-3.992730117735037165e-01,8.239834298006507574e-01,-2.955612217084046534e-01,5.415760664610573816e-01,-1.137026430159599893e-01,1.959436704641538858e-03,-1.272692982639470234e-02,2.363766424764589258e-01,-2.608579336538158211e-01,6.691104443156921100e-01,-6.237550307964999652e-01,-4.191603876610156543e-01,-1.689710412394977324e+00,6.442491534046881352e-01,4.526055537574579651e-02,2.886928381510815989e-01,8.648131772801601613e-01,-1.786073294039236536e+00,-1.819731101946404361e-01,-7.758455997389096526e-01,-3.559675044525895671e-01,5.973395696918765152e-01,1.392077892569381359e-01,2.438942568235709096e-01,-3.392200879822552806e-01,3.702629467803892228e-03,-7.171509250670814184e-02,9.754232699504303827e-01,6.817941848645895364e-01,3.133916845295050546e-01,4.012423127502827147e-01,1.190530059979873823e+00,-1.235993443669883840e+00,6.085662386190967554e-01,5.533945343654577131e-01,2.304850448910955030e-01,5.163574733227788149e-01,-1.456948307278109533e+00,-4.131903833292541184e-01,2.949278365698538851e-01,-3.131237477224683707e-01,-1.975539699509264446e-01,6.968745374193298092e-01,5.526430313279284690e-01,-6.577058835230917833e-01,3.403332052930886469e-03,-6.414381257464978059e-02,1.829844604153279264e-01,-3.684757944201555446e-01,-5.595703673930038091e-01,9.256071425128824526e-01,-9.021427750109549670e-01,1.389964057495833849e-01,1.509945507478286819e+00,3.480027388666247501e-01,1.940673458007362573e-01,-4.278729157813695450e-01,-2.285404174080451600e+00,-1.111489481007262858e+00,3.416046988117657501e-01,1.117778624719641678e-01,1.315639310874219536e-01,-3.483436173593254526e-02,-8.038986712178417537e-01,-5.649673405461637099e-01,5.707504267466868494e-03,-1.127614584221517113e-01,5.270253273370660851e-01,1.065771097015172142e+00,6.385273697539829429e-01,-6.496464382705627871e-01,1.118337119992968809e+00,2.054250790952417027e+00,-1.113240057119242010e+00,8.778962409786226218e-01,4.628534385517319438e-01,-2.352608535960152430e-02,8.971583764954627060e-01,9.015569302031711807e-01,1.967038988852593540e-01,4.714744052216652270e-01,1.729710788604151006e-01,-2.993998441293597157e-01,-1.438723756878167892e+00,-3.892589030154957053e-01,5.679350550982309800e-03,-7.947867081280386714e-02,1.404568156496438736e+00,-3.899653411536908587e-01,-5.294532413732251364e-01,4.514290822057173136e-01,-3.735421341028024450e-02,4.737584014815525157e-01,5.793323759375895721e-01,1.407212366431327411e+00,-8.144259985133422974e-01,-6.859567588135405680e-01,6.835636925305045575e-02,-3.855794779133185912e-01,-6.662038916830084201e-01,1.141360755563009644e+00,4.044721976878901115e-01,-6.937848462594435883e-01,-1.223856485799885041e+00,-1.638505238702022970e-01,2.726955422965422760e-03,-5.213437249666121737e-02,1.111492855302741889e+00,1.153516839091328801e-03,-5.522745722317012884e-01,9.544463868471989576e-01,-5.987566173803535730e-01,2.364360233573780390e-01,1.007663172495600890e+00,-7.463981862103191700e-01,-3.373604828731645577e-01,1.161507313221546156e-01,2.209181499078014532e+00,7.303081579449995919e-01,-1.433031018503678478e-01,-8.705741502383605723e-02,1.416958554368406009e-01,6.314232280448668355e-01,3.077319023718215751e-01,1.003805216243836979e-01,-1.919223749231833542e-03,-1.812161823816083386e-02,4.329614699900637964e-01,-1.226158988489140400e+00,-6.207720103738374462e-01,2.571266577603841252e-01,6.639631256797594583e-01,3.321583203323921762e-01,-3.950733362529688097e-01,-6.487805717884452816e-01,2.099270114708316204e-01,-3.924009703123727544e-01,-1.766123749289304767e-01,-6.308925451501876669e-01,1.080066356501012542e-01,4.630100736302554254e-01,4.278152426542878861e-01,-4.017836915650461749e-01,3.936750938296337265e-01,2.667268642238767029e-01,-8.110087814060935830e-04,1.561659149620001248e-02,-1.007310603051693454e-01,-1.114427946687031934e+00,-7.722455983516068878e-01,-1.307935592702893501e+00,8.626351766881812377e-01,6.461915265270945508e-01,-1.033256081607221599e+00,-1.363612609185991253e+00,-2.636945539469685018e-01,3.917380491473603232e-01,1.175324084359471222e+00,6.593806112420362853e-01,1.195142570319402964e+00,1.019290924998947245e+00,-4.921824926973684122e-01,-6.194511490344469656e-02,3.811291198358329746e-01,2.220400749069717516e-02,5.520209916948681550e-05,1.236323257221793280e-02,-1.440695882066846401e-01,-4.664848905444624605e-01,-2.794695543566068641e-01,-6.464964742849080848e-01,-6.908231538948468309e-01,1.781687218307329568e-01,-4.146513830034987969e-01,-1.174793943304335953e+00,1.026522625128459959e-01,1.257418341007903173e+00,3.290396311788267303e-01,-1.559725940522326049e+00,-1.384783301421770085e+00,-6.132303164861037104e-01,-4.880671422939064641e-01,3.870193865231625480e-02,1.509809257065601873e-01,-2.111744391125618819e-02,1.999828866019513307e-05,1.438942896931756860e-03,-3.010051683592660909e-03,-1.113554653195211186e-01,-9.796511993043363065e-01,-2.102659320549692623e+00,-2.113813337091182021e+00,-8.133608145703102865e-01,-2.565768172363576127e-01,-2.896182645907069420e-01,4.211242725371227430e-02,4.928010753815331713e-01,-4.408340637769718739e-01,-1.032478318712959364e+00,-8.302855300873465128e-01,-6.746909688940837535e-01,-9.267105326804689347e-02,-1.006989074773574633e-01,-1.834461816467748349e-02,1.598493017453518107e-03,-6.043889397431884981e-07,-5.803043205148935083e-05,2.716688866998070214e-03,-3.762568214410661957e-03,-1.826298806750124570e-01,-6.112309881766277986e-01,-4.873837907586190399e-01,-1.559002735883196211e-01,-3.313351626852102660e-02,1.676211799455006729e-02,8.443492804168520327e-03,-4.825572069526739422e-02,-1.070026057021849220e-01,-4.658180118529411939e-02,-1.151858186158779829e-01,-4.098276223841033905e-02,4.450328580498878056e-03,4.524845572693938708e-03,6.658965387577456599e-05,2.952306057187108158e-05,0.000000000000000000e+00,-6.315424228174770775e-06,3.938531224807458806e-05,-2.202040000880899843e-04,7.903830299094711381e-03,4.553748825178423332e-02,3.112640764527367307e-02,1.051743062790406850e-02,2.776066662677352873e-03,-1.686405919183273962e-03,1.217374958829909454e-02,2.205865498563035210e-02,5.998111211969228392e-04,-1.993255266125091088e-02,-5.168962413602723287e-03,-6.262795604647824685e-03,7.682460860350887651e-04,-4.307162169871586564e-05,1.474578791699298246e-07,0.000000000000000000e+00
-3.649607869068479005e+00,0.000000000000000000e+00,0.000000000000000000e+00,-3.574751969972378366e-06,-1.492239769758252495e-05,1.196411657127885615e-03,-2.036431247976173021e-03,-1.149639771224073904e-04,4.272641474259351868e-02,2.925365980192851795e-02,4.154533242046301589e-02,1.197336901416952600e-02,-9.806634985544489171e-04,3.388918923690199727e-03,2.288944019919253448e-02,9.792229089494751404e-03,2.806207164549310066e-04,3.999157874530393615e-05,1.143777901733584899e-05,-2.402656199170421254e-06,0.000000000000000000e+00,-2.581200062551910223e-07,8.072256496811167222e-05,-6.364676284132193731e-05,-6.726436280557023493e-03,-3.518880751829995407e-02,-1.101136234873011793e-02,-9.931969554646379039e-02,-5.678800466998870089e-01,-2.585574592444812581e-01,-1.553134453911743096e-01,-1.663389605656231951e-02,3.085429726597667399e-02,3.573215364172341313e-02,-2.091145668597876595e-01,-9.868612262862329343e-02,3.079739739084640885e-03,1.641744016885206877e-03,9.044361123761211025e-04,2.701541364895423676e-04,9.437743321656646913e-05,-7.408735676746192965e-06,-9.182826619186810818e-04,6.500682376868617725e-03,6.616064345968103444e-02,1.881083950791785919e-01,5.764536490273464153e-02,-1.021446600321634091e-01,-1.474561473708001058e+00,-1.399781600810884541e+00,-3.222993161210761515e-01,2.699473003170579366e-01,-6.896171137915636518e-01,-1.377694068195583599e+00,-1.183409710095086220e+00,-3.339963663003594485e-01,-4.746421325446935346e-02,-2.317960466024502481e-02,-1.923826583827228931e-02,3.405316829791002215e-03,6.813715874886683418e-04,6.395959681606247407e-05,-7.882937357930873976e-04,-4.110198519084221763e-02,2.011270912646249409e-01,9.552160629581943896e-01,4.135277626502179005e-01,7.736087038321437515e-01,-4.620581028984714345e-01,-1.915513567080482926e-01,1.072930207925100854e+00,1.072118415663400048e+00,-9.908527679496624829e-01,-2.517453525072794296e+00,-1.352082566829494237e+00,-7.761798914745136058e-01,-6.183244601434624288e-01,-2.143780342853372767e-01,-1.073414779410876013e-01,-2.267156111275497182e-02,-1.065637825390568748e-02,6.853268230091738231e-04,5.415488102729541439e-03,-1.492110864066812925e-01,-4.133119459322274203e-01,2.021292713035794386e-01,-1.984900723557453672e-01,-2.800055716411628537e-02,-1.010342711587177700e+00,-1.129307538050382975e+00,-6.554380002719606413e-02,1.533229221916240004e+00,-5.451966589538074226e-01,-1.305596814751114776e+00,1.556465018491393737e+00,-1.608849632055757151e-01,-2.106097844793153318e+00,-9.955195988572929089e-01,3.121381364860584817e-01,-5.891368779791500421e-01,-1.421900681424188573e-01,-2.927985683560797945e-04,-1.963304457387182039e-02,-9.431990701767468954e-02,-5.924645577226904658e-01,-2.191163983428367490e-01,-2.784860630028135331e-01,2.681738686074746636e-01,-8.088602546269272331e-01,-3.342625545824994687e-02,8.348269340820281270e-01,1.017985081525604185e+00,7.320841360408444354e-01,1.551904480994741098e+00,-1.329975842334338632e+00,-1.183858464034365010e+00,-1.985101960552242417e+00,-3.812724313436766654e-01,-4.655468281874355907e-01,-1.353129222178402591e+00,-3.180770527210475263e-01,-2.076360729249772705e-05,-8.951241238731980077e-02,-4.198125191756750807e-01,-3.092486948095882204e-01,3.800970646999328184e-01,3.131466136046918286e-02,-1.365409427503815998e+00,-6.370039357070549357e-01,1.045992734807718261e+00,1.372092972231449437e+00,1.359892988408917258e-01,9.414555760453638955e-01,2.173169867393135668e+00,-1.367825563069604122e+00,-1.150511437349450272e+00,-1.192201460316478556e+00,3.562004572001655767e-01,3.991703092948776788e-01,-9.214747436035023442e-01,-2.015616041074864973e-01,-3.401947323940517423e-03,-6.049140820960259290e-01,-1.542460914411219797e+00,1.933076210601558098e-01,2.974031912087803931e-01,-5.635258458093657385e-02,-1.304877324677211625e-01,-3.397078774737739004e-01,3.345530302882428475e-01,1.592813930449168414e+00,-6.944621426149203414e-01,1.769368067804102940e-01,-1.241307785728150259e+00,-1.519719688833762739e+00,-9.740302027929754747e-01,-7.161341441835655797e-01,-6.078540651992105914e-01,-8.848090860988205852e-01,-2.295689124077906484e+00,-1.833045271609178017e-01,-4.268980904667264015e-02,-7.254560645827590193e-01,-1.632480161672315910e+00,-6.616398586071257082e-01,-8.436403742060692990e-01,-1.074120473960328503e+00,-9.204537557052925312e-01,-3.412409985696325809e-01,9.524745247637803613e-01,2.713044139320411663e+00,2.597936165032343592e+00,1.576336799625488894e+00,-8.776568508493665099e-01,-3.044790033886349834e-01,-8.210399068567362235e-01,-2.234512621971633362e+00,-5.093730725349248090e-01,-6.006659655784890584e-01,-2.775454534658799322e+00,-2.659193039686154614e-01,-5.571943921028332108e-02,-9.027316606484327988e-01,-3.255947385614319067e+00,-2.206171758953329398e+00,-1.144911647255156373e+00,-1.628264645035416347e+00,-4.762607355622149319e-01,-9.702105751555543112e-01,-2.001749140692524742e-01,-3.370992840519994593e-01,-1.481456504298136849e-02,2.452870002023254115e-01,1.275177369786976378e+00,2.506364496492086591e+00,-1.478368184715307621e+00,-1.109065450382375584e+00,-1.318056949795375354e-01,-8.016887197402319254e-01,-2.911973812490076252e+00,-5.053601001635856793e-01,-4.726699933194902781e-02,-1.633620583440897889e+00,-3.895326694723601602e+00,-6.773137348777594768e-01,-3.889305056475605982e-01,-2.182381056832011446e+00,-1.717993016066724721e+00,-3.454228161061474012e+00,-1.383527027164050072e+00,-8.796631665188773264e-01,-8.959480726107215132e-01,5.047501793555260186e-01,-2.947906303063256850e-01,9.604988926008860561e-01,2.330144674880098576e-01,-9.016867291042247601e-01,-6.599752969753450715e-01,-2.862847450225210477e-01,-1.592634071354056768e+00,-8.775091557080100246e-01,-2.434097841352599323e-01,-1.397293762290223951e+00,-2.807499040384934030e+00,6.451689772050227534e-01,3.842217075998518028e-01,-2.791906415352621185e+00,1.286856713234058924e+00,6.074313843378602584e-01,1.809507269714892175e+00,6.818431882236504482e-02,9.325283425421411199e-01,2.610630821284283254e+00,1.147555341527401573e+00,1.558284535489564471e+00,1.023748424200051410e+00,-1.672251415990155365e+00,-3.072250357715308189e-01,-1.455156307269394045e+00,-1.820174123764622065e+00,-5.139610942782624203e-01,-6.389308278685769393e-02,-1.350585562774474502e+00,-3.490298101357024674e+00,3.226653435412674825e-02,-6.525772846771388247e-02,-1.385245865022334044e+00,-7.602596618361425751e-01,-7.506408134251418840e-02,1.086225463903879862e-01,1.525563009819795646e+00,-1.957779357734102388e-01,-2.127287257427738776e-02,5.529276224191562727e-01,-1.477151054720075907e+00,-2.339015972824003142e-01,7.972435787532979878e-01,2.318437174455338923e+00,-8.449446928938225687e-01,-3.040422493740744248e+00,-4.440076519357650797e-01,8.978015330469423525e-04,-6.231979139505640086e-01,-1.758054080658718599e+00,-1.357348707956139044e+00,-1.274517678962103329e+00,4.983154075360857194e-01,-2.926268514701635404e-01,-1.650284854531104406e-01,-2.770402468270585783e-01,1.164716855776247506e+00,7.942654487417414311e-01,8.127983964378827642e-01,6.928554122816911187e-01,-6.753709369314828681e-01,-1.481725367858503173e+00,2.691714368080055375e-01,9.049161774790256407e-01,-2.067933386736611645e+00,-1.882855138281305019e+00,-1.080924016489593215e-01,2.954668321181289775e-02,-3.765889757467656418e-01,-3.253366576936637111e-01,1.168757565757172490e+00,6.281466387558606312e-01,-1.858203442759409074e-01,-5.147335676747765154e-01,-3.382517371523798277e-01,-8.422454639546397281e-01,1.067291738428381542e+00,-3.609848098173647213e-02,2.428498232160145875e-01,8.810333553367075687e-01,7.026101706765421895e-01,-4.230788620441059411e-01,3.781332690703428367e-01,-7.498769104133104491e-02,-2.100563236452270388e+00,-1.305772377407182328e+00,-9.622688263577547363e-02,2.263124170517335013e-02,-3.173692242995536095e-01,1.190581972350906598e-01,1.108782269517074814e+00,7.321005725650323592e-01,1.319127682485395692e+00,-5.567280796033953205e-01,6.613580202025577393e-01,8.242374212697538560e-01,2.768436493026774636e-01,-4.620489314464096275e-02,-3.702648266434049873e-01,-1.453322731819446822e+00,-1.637755271321715833e+00,-1.460903931314718740e-01,1.082284208413550441e+00,7.347346617493855092e-01,-1.218398286494773108e+00,-1.368665365660457489e+00,-5.397778821273716554e-01,4.980686403987228880e-03,-7.234753717689303143e-02,4.192948474121813845e-02,5.978431692415392407e-01,1.668115160230442928e+00,4.127854360966042857e-01,-1.401436785793348960e+00,2.351724422835249628e-01,-7.390840885370678626e-01,-1.156630742615499363e+00,-2.296730253975774044e-02,6.172161216089537827e-01,2.733477648561167817e-01,-1.943965073442979863e+00,-8.064978393509841803e-01,6.005494187802795647e-01,6.471579261987849829e-01,3.255452457235873814e-02,1.894896818882809558e-02,-1.795184120605441969e-01,-6.009216466210230310e-04,1.044995790564458987e-02,-1.512985290045444631e-02,-1.721233029666141556e-01,-4.115838729851771238e-01,-2.922081108112263848e-01,-1.724524431535208402e+00,-6.012463711470751315e-01,-7.833421648549799832e-01,-1.036413287570505881e+00,-1.774280849087300993e+00,-1.228558117488379731e+00,-1.874733220438019043e-01,-1.107346251576921015e+00,-6.999216098510162576e-01,-2.787844833953619927e-01,2.028129093932344029e-01,2.164117562903803138e-01,1.586956782471014571e-01,8.565738924022571390e-05,-1.724978642439128590e-06,7.341143082181506669e-04,1.240881860638977938e-03,-7.794967106847316973e-02,-3.641686381354684587e-01,3.533715170132074035e-01,2.738011927139444857e-01,1.090569615690058364e-01,-5.988365288758237259e-01,-7.893522317221592921e-01,-5.480101632377971654e-01,-1.195516479773425678e+00,-9.059373796291377845e-01,-2.123384947027470437e-01,-4.413842791075273803e-02,3.187559008631196678e-02,1.015265741119601543e-02,-9.408485889265495727e-03,-7.559615301137859004e-03,1.288773470295519327e-03,0.000000000000000000e+00,-6.625626582334252887e-05,1.918129967645088377e-03,1.396006970171402616e-03,-2.103577362952463448e-01,-1.608701241445550933e-01,-1.824209972540232205e-01,-2.512011326022524360e-02,-6.456870737616098033e-02,-9.627668703703969044e-02,-5.332947938716744996e-02,-1.478669376405396807e-01,-1.912261058604876607e-01,-2.500900774714405386e-03,7.346315514799034961e-03,-3.275348194234283146e-03,-2.220398126002861086e-03,1.777998677484192045e-04,5.423508956255465688e-06,0.000000000000000000e+00
1.186318198701751259e+00,0.000000000000000000e+00,0.000000000000000000e+00,-1.517460407574464234e-06,9.246554729909318786e-05,-9.088508672907206869e-04,-8.561082381947051484e-03,-4.802285686972679150e-03,-2.042973553947213805e-02,-1.098163010179879946e-02,-1.769101114438067666e-03,5.224426975641449525e-05,1.991126018864260595e-03,9.584240365068188300e-03,-4.782897536000612487e-02,-7.529125173274280047e-02,-6.880477838984785802e-05,1.130057718201576186e-03,6.975354912662206208e-06,-7.388388514685357978e-06,0.000000000000000000e+00,-2.492414229148143207e-07,-1.426515163969418059e-05,-8.003290463239178063e-04,8.464759367103915494e-03,2.707664196319631983e-02,3.673705290866401130e-02,-4.208411231686597434e-03,-9.985920883486935906e-02,-5.873256090957967857e-02,-2.901884136203217515e-02,4.526555843473304905e-03,-1.609879036788855813e-02,-1.075895392265389383e-01,5.189144769985819527e-01,8.286655100531494789e-01,-2.864092153582790089e-03,-1.353486070905644476e-02,-4.442325593756438554e-03,2.940537860727293271e-04,3.512794597865409759e-05,3.292930363034536054e-06,-5.073701216816691107e-05,1.194672816524966139e-02,-8.717581354263882754e-02,-4.292127575799810635e-01,-9.395749547112574040e-01,-1.146164470078881559e+00,-3.484247966344042324e-01,-1.564182251077956276e-01,1.543382779691390011e-02,1.435899450788381132e-02,-7.463915862218611919e-02,-2.158060108519306575e-01,1.062172151624623195e+00,1.689519737828415247e+00,-3.649261876510987990e-01,-2.637204582857887725e-01,5.204801706509439713e-03,3.142465077595291839e-03,2.326743717614322281e-04,1.421303992663395027e-05,1.624494477754545542e-03,4.309991289777117401e-02,-5.488049239400331070e-01,-1.590402495290798468e+00,-2.203022064866094976e+00,-1.344838136541777196e+00,-3.591386195718190288e-01,-1.563898360826382616e-01,-6.826625028287831576e-01,-9.170150583987044524e-01,-3.267140109446681762e-01,1.121548888850831122e-01,-2.640168426122142115e-02,-1.058782248117324104e-01,3.494335748326849456e-01,2.908592425591982611e-02,3.996005126071721092e-01,-2.517446031874890841e-02,-7.663863358173165531e-03,-5.149926597026458182e-06,8.817732053586949115e-03,4.871659493301917082e-02,-1.463235050440738538e+00,-2.977525654285404055e+00,-1.722027933194645533e+00,-2.648024526476877583e-01,2.637825054002007619e-01,8.803859031605762997e-01,4.572061369868959391e-01,-1.233801274773220769e+00,-1.769087412588267627e+00,1.541307856547539545e+00,1.367663455044611620e+00,-1.815834448051857564e+00,3.076503116562262496e-01,5.013663052253343189e-01,-2.058366552043783826e-01,-1.792721089489668351e-01,-1.624602726399902199e-03,-1.240001053532261755e-04,1.727535589485635487e-02,-9.005236624674380075e-02,-1.422608104770709314e+00,-1.237847789653303110e+00,-1.263621052571378911e+00,-1.430839123047645822e+00,-6.080639827631215827e-02,1.342378105207742367e+00,1.520766130977934338e+00,-1.167725240585542279e+00,-3.515773085118605756e+00,8.190618573160718396e-01,1.916969101687940435e+00,6.207948478225381317e-01,4.823526602873297042e-01,7.803558193346565863e-01,-1.596923881745761165e+00,-9.491866642730482084e-01,-2.689091299721762390e-02,2.441000244254614392e-03,-1.119708885373205814e-02,-3.447503012087461682e-01,-8.663042272364891438e-01,1.407978745280019206e+00,9.899227212323181702e-01,6.647885612576494019e-01,4.827964788172756094e-01,-1.267674630414086789e-01,1.202916916742785419e-01,5.382125071651685522e-01,2.539685558882782135e-01,-3.697543145968912093e+00,-1.704248297633226938e+00,1.875748296412607763e+00,2.472140455021641370e-01,-6.291311962914147848e-02,-7.040272784050900789e-02,-9.056610588045367338e-01,-1.835823317562803314e-01,2.833953781382852252e-03,-3.242796120593054859e-02,-6.453925544185923346e-01,-1.524415268717821625e+00,-2.860082308404074403e-01,-7.062832964503790167e-01,-1.456798077796731095e+00,1.474000760873228844e+00,5.076710651852721634e-01,6.636879270727562286e-02,4.995969163564260573e-01,1.907046033337295610e+00,-1.756148954805191398e+00,-7.493347328217566661e-01,1.653178913131857941e+00,-1.880326778507307728e-01,-4.951402054643060102e-02,6.280853941370797555e-01,-9.061416492565640413e-01,-2.050343927242775088e-01,4.482968774408670372e-03,-1.289660149564535729e-01,-4.010334869486613385e-02,-5.641920507425496334e-01,3.989975812083028650e-01,1.248636162307632524e+00,1.669510019016309021e+00,6.076545566125234332e-01,3.732113756501256874e-01,1.524880000188451490e+00,-1.879846677047411485e-01,-2.110161594544840979e-01,-9.375122635535837468e-01,-2.628101482963610680e-01,-4.410242908487965185e-01,1.043681580862806602e+00,1.128117117902294630e+00,5.925456378365614452e-01,-7.711100012014600047e-01,-2.000542193665855450e-01,2.055641929147513508e-02,-3.181213724941060472e-01,2.131902167014654570e-01,-8.556681978690637846e-01,-8.060065646743216350e-01,5.275594522638169526e-01,-1.809467447919381300e+00,9.040562201392785546e-01,7.456758119940412599e-02,1.395906614886705865e+00,-3.736650019658431798e-01,1.563654479287912014e-01,-2.385198536862816798e+00,-4.556100573721694191e-02,-7.411357305148717767e-02,3.024408598718226204e-01,-4.600406747829930976e-01,-2.861356713991528578e-01,9.828076680278791111e-02,-3.131658392327106299e-01,4.004772923571413984e-02,-6.122698637745395134e-01,-9.558608181500121148e-01,-4.665703414002270732e-01,-2.270229462807516752e-01,-9.709067432201007319e-02,-6.821139007760831374e-01,6.999277972996962305e-01,-1.253434575774545090e+00,-4.235755764017374858e-01,-1.045284588173221785e+00,6.381345841017883602e-01,-1.356867610785749134e+00,1.019233177961673897e+00,-1.401498352835488515e+00,4.418350296359349616e-01,5.144912185393906157e-01,9.235773578494976821e-01,-3.885557163060143204e-01,-3.663486064688445953e-01,4.710517885193208493e-02,-6.494237429191028754e-01,-1.793012084731214095e+00,-7.847695633334386134e-01,-5.992664123694161349e-01,-8.442020798056135700e-01,-6.130647538471076796e-01,-1.848029271648035987e+00,8.342265044438721411e-01,-1.980128767562262526e+00,-1.856634820130239893e-01,-2.268046262343677899e+00,1.032594801270572349e+00,-5.996995907689219862e-01,-1.251006143667448889e+00,1.930103308603276502e-01,-2.677445963267640616e-01,2.239344681014242555e-01,-6.127470461061311768e-01,-2.713758055755980392e-01,5.395050198176690182e-02,-6.197470408765820560e-01,-2.281239110004410708e+00,1.189497860304972621e+00,-6.551078371580194570e-01,-6.669785871364279917e-01,7.193310015359600795e-01,-2.954036367327463442e+00,1.866544889768395263e-02,-9.912055529931336206e-01,3.295378490649950587e-01,-7.802445960269313030e-01,1.004694591407464754e+00,-3.902948543909333379e-02,7.557039294239173977e-01,-8.661609632767800493e-01,-1.697049436811035317e-01,-2.106618914985390889e-01,-6.379450653087346268e-01,-3.166291674355427577e-01,3.047203904872912775e-02,-3.560742732366650176e-01,-1.836857249685434956e+00,-3.438120238400783069e-01,6.472583085230045052e-02,-6.818554124598048549e-01,3.097434332172432359e-01,-1.923621453357699629e+00,-1.697607078581899964e+00,-4.684483717344292142e-01,-4.840848509904199237e-01,9.051252940323735452e-02,-1.386336057459997884e+00,8.813402542685878638e-01,-8.823948568624584432e-01,1.323520632202160596e-01,4.580967862486323705e-02,-6.573619964270016602e-01,-1.109703447302343937e+00,-3.987293106654060670e-01,2.162105936386602215e-02,-3.960093625001180895e-01,-6.308853885060169420e-01,1.111705112611440921e-01,4.588291838326521987e-01,1.187479589803374314e+00,4.408173703190877007e-02,-2.791291534730101276e+00,-3.190701048717063504e+00,1.632239664376884836e+00,-8.621475328523946491e-01,4.547847942669307475e-01,2.409415467588686410e-01,4.565028856379999556e-01,6.723959139886150904e-01,7.664201277071119867e-01,-1.697362605939182478e-01,-2.210673735260986761e-01,-1.303177890017294782e+00,-2.738483724461279745e-01,3.248016630746998479e-02,-4.181602191968886717e-01,-5.212019063214209380e-01,8.051163518713377876e-01,3.212394260810140234e-01,1.783641246918596379e-01,1.321483576853639264e+00,-1.234778215074867846e+00,-4.405336712133924415e+00,6.177179830187486953e-01,1.394143506227913387e-01,-5.060460547405791765e-01,4.502807183366742128e-01,1.624037260400107707e-01,-7.645934921286874353e-01,2.492243179650874274e-01,6.648014725758688570e-01,-6.521469066906939727e-01,-1.324222788064395528e+00,-8.214555266470677797e-01,6.387934335790173938e-03,-6.549640457603302102e-02,-1.681676413476786147e-01,3.196174082859347676e-01,8.357778470890796230e-02,-1.988179289734109956e-01,6.053979954124000251e-01,-1.228546281380600291e+00,-6.338182940112069730e+00,-5.027359211863502431e+00,-1.569788728724267779e+00,-8.315524153145714692e-01,-5.239811054074428737e-02,8.034005160527880607e-01,1.722289007210394907e+00,2.136937623255007246e+00,9.444062207685494093e-01,-1.804397922899089457e-01,-1.879146502789175444e-01,-1.924800502147635262e-01,-7.876890961036137279e-04,-6.846982315574118858e-04,2.530879233694539043e-01,5.424306806565214467e-01,9.269180794976071835e-01,2.446147925897319997e+00,5.498769056961831936e+00,2.535504282665612230e+00,-2.456846006605454935e+00,-3.060117702771006254e+00,4.539939955565248930e-02,1.667870682272190708e+00,1.670704378086993014e+00,1.052858215503152728e+00,1.003679201762988304e+00,8.447227788575381036e-01,1.205066925976779613e-01,-8.651576548662828769e-02,-3.880797591833210977e-03,2.654333076243674608e-02,-2.603527968202378149e-06,-8.615332326610537078e-03,6.995114017412304430e-03,8.506200630962427178e-01,1.333919752311815587e+00,1.209092254357160723e+00,3.824849205621131620e+00,4.290529592768252520e+00,1.421605878252030442e+00,-4.932295763701183278e-02,-3.149126639255689919e-01,-2.427379354209947548e-01,-2.909356607262772454e-02,5.285411676788249850e-03,-5.590138229187726626e-01,-3.583097124933052324e-01,-5.574902194026463975e-02,1.104566861316357007e-02,1.697649612313274596e-03,-1.065469541913595310e-04,0.000000000000000000e+00,7.405685353124131457e-04,-9.980278723604104132e-03,7.216033863645080100e-03,5.539415708498404700e-02,-2.670627371937015493e-01,1.101271905080802027e-01,2.616529760216847467e-01,1.727494739208699503e-01,-1.137974830025642592e-02,-1.881818830565730460e-02,-1.322571121330525790e-01,-1.661398924612033368e-01,-3.523514434926399569e-02,-9.323405204552309700e-02,-1.496086771915746197e-02,5.958054965637655728e-03,-4.783936906607859124e-04,-9.426836418239308058e-07,0.000000000000000000e+00
-6.752793498883197465e+00,0.000000000000000000e+00,0.000000000000000000e+00,-1.490481645419138135e-06,2.784839621357810567e-05,-1.606905390908554873e-04,-2.087892479399627464e-04,-1.713797794444652618e-03,-3.374241997776078819e-03,-1.400257917564571870e-03,-7.430960466377693318e-04,-1.509533930864621464e-04,1.392498118475348173e-04,1.791719479784736294e-04,1.002706951940512438e-03,1.641025178442984296e-03,2.346204206245073654e-04,1.754143145572866492e-05,4.150870181770459024e-07,-2.621082210012173596e-07,0.000000000000000000e+00,2.204322462386289129e-06,-2.543057373900075874e-05,-3.514419425029067189e-05,-3.430806081255939372e-04,1.478444195727955483e-02,1.943536251200816967e-02,-2.066139355475166486e-03,-2.224560104539050585e-03,1.668325868645521848e-02,1.493866033943719480e-02,1.375921561858868374e-02,2.305011972842086442e-03,1.885215832484597731e-02,6.356125109370411828e-03,-6.687261586832369924e-03,3.248786814886569715e-03,1.482710641141996629e-03,2.177837932280385499e-04,5.476245552480470715e-05,3.122359525012616965e-05,-1.442026448734022799e-05,3.629640803788405359e-04,-2.602037866735076258e-03,1.260003695075197216e-02,-1.708007217291891422e-01,-7.418110318478309262e-01,-3.300406257606652294e-01,-7.017929929000723543e-01,-1.153533956235538671e+00,-9.117553082869181980e-01,-3.982095579587148770e-01,-1.807607469003092437e-01,-2.380438468197980662e-01,-2.077058459829441150e-01,-1.839032904174609240e-01,-3.367241083729408807e-02,-2.438348452769379185e-03,-1.690818413114122953e-03,-2.021452861535239821e-04,-3.359490780706378909e-04,-1.553141053790190525e-04,-1.048817543277691779e-03,3.406721811365957114e-02,-3.834726780716302130e-02,-1.009919955194038987e+00,-7.890619288838778278e-01,-1.766346475502372504e-01,-8.733687542792660796e-01,-6.776783357336136904e-01,9.103113613532972659e-01,1.039207395963061886e+00,6.531622196199350361e-01,-6.378798918045778255e-01,-7.693217442577305887e-01,-4.709585213058253839e-01,-5.905730765747415623e-01,-1.649795076792964776e-01,1.941861794845709237e-04,-4.224163247779983560e-03,-1.626303731869311415e-03,-4.450674543299798329e-03,-2.784147080710905331e-02,-8.311320426483652379e-02,1.371346955621122188e-02,-4.562510532646955053e-01,-4.757210519861979070e-02,-2.752262410565732287e-01,-3.100416227189548568e-01,9.395648158828451280e-01,9.650037592706904865e-01,1.769614483887117951e+00,1.195896102855536824e+00,-5.961790160657657323e-01,-2.226150927872182717e+00,-9.180090422571820508e-01,-1.613647424239676109e+00,-1.293383374967199018e+00,-3.751360704408086555e-01,-1.332603354225209667e-02,-2.986911774772918211e-03,3.764450655838378484e-02,2.729267704962968222e-01,4.788181045726679352e-01,-1.908799893732620601e-01,-1.511415327451550494e+00,-3.200907738560071714e+00,-2.060412828622895098e+00,-8.124649035500959293e-01,-1.107854380837617558e+00,2.188606865945600388e-01,1.489173906827160776e+00,-2.805803838108708703e+00,1.060610652012856869e+00,-1.296798893016504195e+00,-2.799614820461130638e+00,1.457074392189782852e+00,-1.332792982669603221e+00,-1.076219522406091977e+00,-2.863020197857824023e-02,-9.996897175923844317e-03,2.184984197454770960e-01,1.689209223652252900e+00,1.388521642497339670e+00,-2.803640146867548699e-01,-4.320755688203197220e-01,-1.743053155893293793e+00,-8.494922713414709836e-01,7.499916562128179365e-01,1.732993051975599164e+00,8.755014257876352346e-01,1.263813097776090633e+00,8.894477848644204432e-01,3.335477057305959558e+00,2.420510108929243120e+00,2.310777891801771011e-01,3.230181203308619686e+00,-1.457288665150993090e-01,-1.608506773665401290e+00,-1.004887542753411384e-01,-1.412981317522878956e-02,1.768616044656906305e-01,1.261725294530591679e+00,4.440039540630181247e-01,-1.526673457054907868e-01,-2.465829660548607138e-01,-1.127573270619206980e+00,-2.233440192919518008e+00,-2.427036290822260356e-01,-5.285208367507173571e-02,5.427042737936185191e-01,1.150020691192168654e+00,-1.266985874638726639e-01,7.322463899502404949e-01,2.166322411724479924e+00,4.161403099841600173e-01,1.928541502046808853e+00,-2.083133040179186990e-01,-2.433387204794406067e+00,-1.163227224619569761e-01,-1.649710061386164620e-02,1.260298213422642727e-02,1.502078227542109623e-01,-1.115096594672630115e+00,-3.155625359215556980e+00,-4.355815709516121514e-01,-1.101937351163180812e-01,-1.133715280377841417e+00,-1.924247070440426199e+00,-1.641767814624659483e-01,5.677835917771343333e-01,4.641521602928541101e-01,6.263966470741094694e-01,2.831426326569645546e+00,2.320106142289275031e+00,1.459353316308134696e+00,1.452440549427093996e+00,-1.450254332424207648e+00,-2.616083412412520737e+00,-1.268972074212502132e-01,-2.495735021538212847e-02,-6.057205659992776978e-03,5.550184731679365102e-01,1.696345783328223888e-01,-3.911750480773668492e+00,-6.893961267619612698e-01,-1.429792601543928399e+00,-3.283190154685428075e-01,-2.013969037081473901e-01,1.678239049331903043e+00,-7.233430318340533516e-01,-1.023055706698809547e-01,-1.158822150056855405e+00,2.944227848991657348e-01,1.257371641492565972e+00,1.546390494451817865e+00,2.484144285425735621e+00,3.989758622757240691e-01,-3.310549529760982601e+00,-5.206912673439105799e-01,-1.179458837773265066e-02,-7.947315522197346063e-03,8.544475480346046536e-01,1.923353923424031109e+00,-1.665107645188576457e+00,-7.758016084858883055e-01,-6.872749134694567941e-01,-1.671473040990999914e+00,-1.818694368945351192e+00,-1.886921573512892469e-01,-1.118126514059529647e-01,3.966586546224555754e+00,7.820755857427398317e-01,-3.409540286864148895e-02,1.325311860085458537e+00,8.867379048201243785e-01,5.073788313262109773e-01,4.258146644693370786e-01,-3.958421145726167545e+00,-8.463018128873112111e-01,-3.351058826475237368e-02,-4.400339663789022693e-02,-1.786552633125988443e-01,1.196613699702766098e+00,-1.621511916010428989e+00,-1.470159726850419402e+00,-1.043555124982879612e+00,-1.088198573568906813e+00,-3.366302473159850539e+00,-6.393097319288042479e-01,-5.913380575285640539e-01,-8.278554270458754472e-01,-5.275401159304866638e-01,-2.260561213415112736e+00,1.966888010703961687e+00,9.839396982909844880e-01,1.819506529012397067e+00,4.337408329947912700e-01,-2.389584833245702367e+00,-4.441399844376376360e-01,-4.085609730216026997e-02,-5.560958995297628216e-02,4.200634187101510708e-01,2.118633113030644333e-01,-3.047775647747834160e+00,7.067524924237952866e-02,1.445279525542570165e-01,-3.578162119955874854e+00,-2.761574636063516497e+00,5.403095887227828964e-01,-5.346928553374828974e-01,-3.178531325212452519e-01,2.910464379882957697e-01,-5.541706970807334237e-02,2.244298349224340683e+00,-6.526621036493680528e-01,1.583306192551219960e+00,-1.248313122871607783e+00,-1.760239241943812649e+00,-2.998223404828917471e-01,-2.077914636230616605e-02,-8.473507363261700842e-02,1.388475464354241851e+00,1.470895124036127877e+00,-1.578899173378559340e+00,7.528639078525238837e-01,-3.492420293703088596e+00,-4.197180966731710150e+00,-3.234455342814267498e-01,-1.131028804729599324e+00,-1.036257155209763914e+00,-2.504064509902033109e-01,1.803834929636750073e-01,2.555492737906216449e-01,6.183546066891602022e-01,3.281353118326974516e-01,3.839544271659169894e+00,-1.490966800171641404e-01,-1.317533272979865666e+00,-2.523775978898604722e-01,-7.652800004433767123e-03,4.864817098624604069e-02,9.458382428907936568e-01,1.486041771467577544e+00,1.715164881948896491e+00,-2.121714619331555252e+00,-4.536795739201399336e+00,-3.667374880950290961e-01,5.102117995498053338e-01,-2.354386524243675005e+00,5.185167198750637585e-01,1.782666212908456060e+00,-1.732270950621442429e+00,1.232556018858716795e+00,-6.969550922577155694e-01,4.696785482228719721e-01,6.250890797406496446e-01,-8.173555472382012521e-01,-8.071004113467019625e-01,-1.961707212278621937e-01,-2.876867522694407167e-02,9.414342834507583718e-03,3.958532228129292285e-01,-1.585438134579445713e+00,-1.318447372548005314e-02,-9.933943201164323611e-01,-1.065758520591209679e+00,-2.191675253811539381e+00,-3.444151223655309568e+00,5.197004351682641410e-01,1.603169298539180720e-01,2.311659197666329213e+00,1.969637875734089882e-01,-1.601417268840460650e+00,-1.685194130961121362e+00,1.166683698175315087e-01,-2.896777101088060746e+00,-1.496754334585153945e+00,-4.451743581477419776e-01,-2.361075954227291329e-01,-2.213253476185549351e-01,-6.410976249558713626e-03,1.014966407674754573e-01,-2.560649003982371053e+00,-9.289785411918108915e-01,1.053453364466485631e+00,-1.044615738372454583e+00,-2.162995966000072379e+00,-2.466179753830644028e+00,7.686434363698559924e-01,5.951809712312076117e-01,1.896621980153818221e+00,1.829641220020215009e+00,6.512088636534053565e-01,4.078820023748407908e-01,-2.644372014282158623e-01,-2.439687761573201996e+00,-1.091135981824228329e+00,-1.736863599827887517e-01,-7.930539535106669383e-03,-5.596793072520630380e-02,6.814575717529020808e-04,4.212011999160813341e-02,-1.899814175597954069e+00,-1.675208030194595743e+00,5.561500727113796172e-01,-1.990917346866672766e+00,-4.107985395205156820e+00,-1.346784563182367833e+00,1.786839778041975135e+00,2.538080891082423296e+00,1.417724002554543894e+00,-8.946953404376473129e-01,-2.137890841802803088e+00,-9.178590780534305882e-01,-1.311413486521304739e+00,-1.364515212352727769e+00,-5.697215451766074468e-01,1.076426589601859295e-02,3.339708743732465630e-03,6.947764725616025101e-03,-2.365220296824193724e-06,1.607728412686958716e-03,1.651452292854536496e-03,1.524527646105344469e-01,9.419389763860713805e-01,-7.246109246496801326e-01,-1.297284797281925917e+00,-3.223980524415142601e-01,-1.300432550890908479e+00,-2.877250058331476401e-01,1.556262491250145708e+00,-2.462445527312613347e-01,-1.050829193264056771e+00,-4.444745237831431162e-01,-2.367698395936382316e-01,-1.154375762799276089e-01,-5.455739690636526168e-02,9.257195241850466050e-03,1.675873005480225518e-04,8.891946146195929567e-06,0.000000000000000000e+00,-2.137680503530674768e-04,-3.187894108211825062e-03,4.404211136170605931e-03,9.387428239441509836e-01,5.131401649847321389e-01,-2.829044351600982221e-01,3.358736303117027672e-02,-3.876243560262249838e-02,-1.997603524392593810e-01,-2.797062281234705128e-01,-3.407178805903298691e-01,-2.311905826798634489e-01,-3.926421375818806014e-02,-2.739929401794122601e-02,-1.702221129922150585e-03,6.371974410800298159e-03,-6.218266142279790451e-04,-4.920808371871129283e-07,0.000000000000000000e+00
-2.447687027095744483e+00,0.000000000000000000e+00,0.000000000000000000e+00,-3.195440040607508289e-05,2.592503470269728449e-04,5.295167779524126168e-04,4.248257783786394369e-03,2.078967002340673109e-02,-4.943864818866781094e-04,-1.777830851935322844e-03,-5.965106328711271277e-03,-2.082238120380906343e-03,5.254450788248939808e-05,7.180845642701943088e-05,-4.971506531875001175e-03,-1.724656100140171521e-03,3.495267828589764978e-04,4.356165495880503060e-05,3.362666244197557261e-06,-6.546762573105803114e-07,0.000000000000000000e+00,-5.914841520609771870e-08,-3.687084075865854195e-07,3.349163725395004317e-04,-2.680550566845974966e-03,-6.862371760329613428e-03,-4.676394108221718776e-02,7.683134071532056464e-02,2.168210891474550706e-01,1.373398467603683670e-01,8.426134669289667145e-02,6.612128186258752448e-03,-2.295956565595879892e-02,-2.783741597989338595e-02,5.260073376230022663e-02,2.905940301419316155e-02,4.431745748792948608e-03,8.222347012912882211e-03,5.698455115983843029e-03,-1.311645446782886901e-03,-1.019720331813189177e-04,2.548334212958406380e-07,-2.448211008767123257e-06,2.246946255178220288e-04,-1.919115729552081824e-03,-1.680092785706575886e-02,1.249328709638905244e-01,2.825322147952051832e-01,1.373540802995621757e+00,1.804923644822151729e+00,1.085688891933394684e+00,5.122560571057714895e-01,5.542371939370622780e-01,2.315233466331417800e-01,-3.480598614826693749e-02,-7.741813917379636312e-02,-1.041855313438980607e-01,-1.195387542009390819e-01,-1.184711927706388612e-01,-1.412450278237219886e-02,-1.623401029747451908e-03,1.611603585963426007e-06,4.782275628285333592e-05,4.782752404281207827e-03,-4.235557655456554521e-02,-2.244511315606716739e-01,2.677478281949829952e-01,5.227528724755537981e-01,1.157454069107257899e+00,7.473486190743925395e-01,5.690452887096837387e-01,4.366776387854757191e-01,8.164428805938545031e-01,1.153111024132184914e+00,-2.043467551298826235e-02,-8.248325896336382579e-01,-6.035093530974349196e-01,-4.020790350715178763e-01,-9.626206513846219393e-02,2.557913355232490082e-01,2.981801182216729101e-02,3.615044153906399456e-06,7.336894043023403471e-04,1.726185340462653428e-02,-2.661934962664576632e-01,-2.328299541497839131e-01,1.031272900065596909e+00,8.123282929593697022e-01,-2.772595235450521778e-01,-1.157914408750855939e+00,-9.694714692644078591e-01,-9.045469098926191276e-02,4.399047413827083530e-01,2.516383611492033490e-01,-1.453883584210097890e+00,-1.799547097050640643e+00,-1.358540986431737929e+00,-4.746780140460460928e-01,5.483002178739049270e-01,6.516443853850335532e-01,-6.879202681084718718e-02,-1.151390296223279432e-04,1.837009936222309871e-03,-1.043064437544688472e-02,-3.206495256017316553e-01,1.960050932586190550e-02,8.034403860080763238e-01,9.933903870786634505e-01,3.664649057389476883e-01,3.371775104857450966e-02,-1.358294219999369279e+00,-5.782126365805630996e-01,2.161792838988202056e-02,-6.733651158568988715e-02,-1.950151548773376264e+00,-1.860479170689354866e+00,-1.053500568065372400e+00,9.197951261022169200e-02,1.522930461215883602e+00,1.043392402882722836e+00,-1.285834940556428718e-01,3.590704784409218660e-05,-2.338540459476243574e-03,-3.935256129925103485e-02,-1.859385982004505555e-01,-1.674760855986472119e-02,-2.949145267107137758e-01,8.160759586511227015e-01,2.825109782615502496e-01,-4.005290772348492345e-02,-6.850119043570642718e-01,4.130729513032170286e-01,-1.327737720664649568e-01,-5.447312941431925459e-01,-1.856851816294394997e+00,-8.043199991140906890e-01,3.670966116711522065e-01,-4.283604186542676606e-01,3.233065147377744974e-01,5.874535453903223514e-01,-1.225098594689996018e-01,8.451693798056729673e-05,-1.279864995753121366e-03,-9.185013132282912607e-02,-2.169849794832922896e-01,-2.112601199263249019e-01,-1.717516607739981160e-01,2.516503551285126372e-01,-5.647169574179586871e-01,-1.034977051765198386e+00,-8.229221986462792460e-01,-3.138853528112396929e-01,-9.712969598832495999e-01,-9.874897382480188890e-01,-6.532684608921005553e-01,1.212799742967847344e-01,-6.267766419419067425e-01,-1.790671247205972039e+00,-2.823887431754564248e-01,1.126410759321558430e+00,3.274945575497638373e-02,7.422209292663452208e-04,-6.372081594673197763e-03,-1.612526675747839866e-01,-5.334561021272639092e-01,-2.879989272679475132e-01,3.257733446773894426e-01,5.198540523382093603e-01,4.852982866682455931e-01,-6.014609638705376016e-01,-2.133547164434009158e+00,-1.220427961123685234e+00,-1.104577860545651102e+00,-1.216546941451421143e-01,2.699996179989897493e-01,1.497127330352988617e-01,1.214383041134170504e-01,-4.416599770802141500e-01,6.734235971004887134e-01,6.010449030178743879e-01,-2.203806507580267360e-01,2.404437451913035359e-03,-1.890245870265200995e-02,-2.985885854251764671e-01,-8.679935351876321148e-01,-1.639231902659545881e-01,3.212733816283997457e-01,-2.829398616599584360e-01,1.237766504053810834e+00,1.387571960043737507e-01,-2.561349795388081496e+00,-1.275171322499044635e+00,-1.156235402313741556e+00,3.177084937984619994e-02,1.991412866906369095e-01,-4.380275324753100941e-02,4.468719942885546192e-01,-3.722346888906158946e-01,-7.681614196056589794e-01,-3.602082345731523749e-01,-1.663697249194840133e-01,-6.612407920428083519e-05,-2.045969103535070360e-02,-4.057210507561671009e-01,-7.742999976223936542e-01,2.626013904813277039e-02,-3.533232958723988015e-01,5.345031277560350347e-01,7.739576201816632528e-01,2.935439235422719340e-01,-1.552590318148060922e+00,-7.823024753183309699e-01,-1.201272927209046548e+00,9.085763354193706620e-01,5.931807911158604868e-02,-6.087883503561436482e-01,-2.211264419616543742e-01,-6.073144002231768424e-01,1.023636980639399674e+00,-9.174260274252787895e-02,-3.323089008266926769e-01,-4.201945171873179650e-04,-2.076936185894979331e-02,-3.046192790777239590e-01,-1.450343838956761999e+00,4.170572657362459079e-01,2.530075525664788882e-01,6.221525910622772715e-01,1.699379550865655064e+00,1.831352394698911867e+00,4.690296425890673748e-01,-2.202434792999611868e-01,-6.815302346598552941e-01,2.581090158252845601e-01,-7.607280233122393209e-01,7.601435565250853899e-02,-2.029345994766794115e-01,-2.111751747445546057e-01,2.946432262892484943e-01,-1.031706476135279965e-01,-5.094292648217182279e-02,2.560720916829254713e-03,-1.767721215026168621e-02,-1.328298939284638380e-01,-2.295585138890066101e+00,-4.440484820469872695e-01,7.517739679569295230e-01,-1.396062664935978359e-01,8.685804163655249654e-01,2.238452340770938687e+00,-2.098182200766208205e-01,-1.287487425395281992e-01,9.374976029075264838e-01,-3.916770989900676958e-01,4.281463117609560914e-02,1.411931674586141272e-01,-6.907574217523848592e-01,-1.154336260441163553e+00,-1.113182174789501405e-01,7.110822229517586024e-01,2.475695258518308683e-01,2.017284469294028815e-03,-9.218153301397195160e-03,-9.276141363100111337e-02,-1.949791681593016746e+00,-1.825182496559145662e+00,1.666600635581221013e-01,7.369060931558596428e-02,1.017226102160339263e+00,1.455303383643554049e+00,-9.352702019940374312e-01,-5.171459818199660580e-02,1.061271881465176259e+00,5.015447761239656410e-01,-5.520082440214825192e-01,-1.274485179091829901e+00,-1.586694352658577944e+00,-1.471952437096131883e+00,-8.283351462717719604e-01,3.458059506418860174e-01,2.149638822904097746e-01,7.236899030988152562e-04,4.162114589732702954e-04,-5.253183938198562053e-02,-1.085814192625233598e+00,-1.348808805482619277e+00,2.791081742130840371e-01,5.434035443557559963e-01,9.676325101571062737e-01,3.226456018610333043e-01,-1.022967566142205242e-01,7.693446463242042954e-01,1.354467305446732883e+00,-6.410813962851114045e-02,-1.306194076785190283e+00,-1.093261578021624381e+00,-1.087474176600913056e+00,-1.233184142767652647e+00,-1.078080426497382449e+00,-4.557658681586032601e-02,1.417731461282907557e-01,4.511882334026364014e-05,1.223169096848995482e-03,-6.928400200321492390e-03,-4.615905230073262810e-01,-4.581999525356991176e-01,4.556757581078203778e-02,3.064216925637980871e-01,3.266378563168186866e-01,2.542161318857649732e-01,8.437901180071116780e-01,7.798513492209986353e-01,6.347396800249450743e-01,-1.119868611932934410e+00,-1.102596397615290824e+00,-8.779127637370738313e-01,-4.940544416131294470e-01,-8.778868004713131779e-01,-5.595823279752235591e-01,4.374198332488477697e-02,4.475956674182975936e-01,6.700227107634794441e-06,9.493884010365687652e-04,4.725490729741242853e-03,-2.297112078840427007e-01,-3.843374725351150212e-01,-3.902904366374359557e-01,3.660582552993865701e-01,7.395233116605810508e-01,3.773006389462960769e-02,-2.974487610421951977e-01,-2.517348145754046418e-01,9.380998481207737660e-02,-1.075334614307311698e+00,-1.146502281833056580e+00,-1.050901000747993530e+00,-1.000011949978038661e+00,-1.038602187869422711e+00,-5.424139250639750109e-01,-2.382762036917057125e-01,7.681698991269723942e-02,1.714349913577917141e-05,3.814016158781891215e-04,3.271015949982858384e-03,-7.012263118197506473e-02,-4.311951013879545824e-01,-7.476433433019781249e-01,-3.378499575464166127e-01,-9.862120089499219061e-03,-4.829692590673084207e-01,-8.333493387032377964e-01,-3.310198112061483178e-01,-2.042753536201883935e-01,-4.069978949531429246e-01,6.392959493117802983e-02,-1.504368031392434579e-01,-1.437147653897016542e-01,-1.004045893759012292e-01,-4.114955213590344024e-02,-2.195895700719520047e-02,-1.978792092340303510e-02,-7.489992032181839520e-07,9.197335215339605540e-06,5.134170031273389443e-04,1.778433422883160617e-03,-9.831645736580625627e-02,-3.142372399748751821e-01,-2.845726907354497737e-01,-9.544315979705468578e-02,-2.514111328378566129e-02,-1.944129890892661375e-02,1.673925765541925126e-01,1.169776012791473932e-02,-4.666408289876763232e-02,-9.135979007661100722e-04,8.313709578775516085e-03,4.253750161464551517e-03,7.770445408545286099e-03,6.870709502190788104e-03,3.733155752487240641e-03,7.877705482276654413e-04,0.000000000000000000e+00,-2.317587129253554923e-06,-1.432468245915920434e-05,1.351186294517372393e-03,-1.490500917255005442e-02,-2.977384748931547961e-02,-4.066506117400432718e-02,-1.236800386965491473e-03,-4.956313616463378126e-03,-3.971919043132998012e-03,-1.562594732243792126e-02,-4.316418244543949144e-03,-5.268393619719331095e-03,-6.580415799270289759e-03,-6.416863255985751557e-04,-7.863966244998391811e-04,-2.328275447431565198e-03,-5.760587364342814555e-04,6.743016772991204145e-05,0.000000000000000000e+00
-9.504549881218164131e+00,0.000000000000000000e+00,0.000000000000000000e+00,-7.563323512602995793e-06,7.631786106540453321e-05,1.248759279934501633e-04,1.524187094174754510e-04,-1.407741079171006757e-02,-1.108295152587154310e-02,1.192471983656526527e-03,6.474680550855037059e-05,-2.459848797495246212e-05,9.473693707838007057e-05,2.604062721988366315e-04,1.130359798316072587e-03,3.521814267048560196e-03,2.593714340636746676e-03,2.940207168752131972e-04,1.396053068196907538e-05,-5.114406627441131486e-06,0.000000000000000000e+00,-1.768067082497300910e-07,-9.688360190747482087e-06,1.355030639117004289e-04,-8.390622862643337004e-05,3.804479647373503479e-04,2.095555007801307157e-02,1.691713126308638532e-03,-4.621264839705152561e-02,-6.727827193119516325e-02,-3.900557217086191714e-02,7.976837256328590808e-03,2.084497513738214555e-03,-5.996988881581307926e-03,-3.567262360612144176e-03,-1.130237338980326703e-02,1.497400091779607645e-02,3.179641352405507965e-02,1.739926223318852966e-02,9.045723840871398858e-04,6.020310535466654161e-04,9.082391869279655662e-07,-1.727031265415154826e-04,4.484041046886837862e-04,1.533336481132198045e-02,1.982670898115237654e-02,-1.716061783359776327e-01,-4.240301478396150681e-01,-3.568438804044873347e-01,-5.710309511101653579e-02,9.123534614316694547e-02,-4.572681515990942996e-02,2.426124967118463427e-02,-9.726335288568430104e-02,-4.799693379615810329e-01,-1.006325794850174482e+00,-8.057840402292805182e-01,-3.618123742320903946e-01,-2.033393598052415652e-01,7.733214595024113722e-04,-7.198217568503799402e-03,6.150600125150784949e-06,2.603473544644487308e-03,-5.672042481283774522e-03,-2.306003020856618457e-01,-4.376214180982785917e-01,-1.485277415246240018e+00,-1.623360524399987792e+00,3.136428103463547723e-01,1.722686132589986707e+00,1.153748992961453723e+00,-1.035980503872216296e+00,-7.462507948032505167e-01,1.119265990307784925e-01,7.481528942967541340e-02,-5.734319870601702063e-02,-1.649948796255799932e+00,-1.625374092043745167e+00,-9.997268328160977546e-01,-8.948485234125862220e-02,-2.665407251012497439e-02,1.901545673996418541e-05,5.876352013529297091e-03,-1.236563375749985712e-02,-5.777880953473032433e-01,-1.571724940480102140e+00,-2.155320152313660476e+00,-2.546267661809434313e-01,1.259428346520312658e+00,3.527959185978622458e-01,-1.819509916356376045e-01,-2.180810736165865293e+00,-1.105042115719215401e+00,2.000670703566450048e-01,-1.002090966269522987e+00,5.154460347525200437e-01,6.413494994305570795e-01,-8.711325774497210572e-01,-9.088858407428002106e-01,-6.306259207891687923e-01,4.929257077620444617e-04,-2.157017326722746574e-04,-4.333678763913655953e-03,8.875688665525902077e-02,-6.297749873251566877e-01,-1.722109057487320793e+00,6.432854398535945428e-01,5.735147549753853990e-01,1.017348698723770539e+00,-3.897177044494155029e-01,-8.922025376612622294e-01,-1.512125012194153184e-01,-1.252247621923745502e+00,5.082662714612560251e-01,-1.093522530281500371e+00,-1.350570335704128100e+00,1.725304887756843097e+00,-7.952614952243587387e-01,-2.274985804698229364e-01,-1.021383165151977135e+00,-5.142344650184754035e-02,2.314409173032265889e-04,-2.296288770847626851e-02,1.114541010335686477e-01,-4.617366140454417511e-01,-8.921431270636596134e-01,-3.157875202011430071e-02,1.431728950370932951e+00,4.942677791875259019e-01,-1.532424804243294469e-02,2.610637667255197858e-01,-1.941761570336646703e-01,-1.799783477660129805e+00,1.071302525758685675e+00,1.230146530617322487e+00,-1.711873575731532315e-01,9.795026109949750426e-02,-1.521441256272249021e+00,4.940188065103451875e-01,-1.157841331601475510e+00,-2.044326127107869429e-01,4.399839198000736473e-03,-6.011726332344786983e-02,1.798458487566571493e-02,6.784707517558946632e-02,-3.002826716788975503e-01,-7.939528953045872361e-01,7.522331691544608123e-01,1.800694547755384622e+00,-1.223387257292185733e-02,-9.278452958811230777e-01,-2.128265783709256675e-01,-3.486292095013047709e-01,2.266743634940581842e+00,3.920114879231954008e-01,4.611334182904274770e-01,-1.548382272787869551e+00,6.614672055367375458e-01,-2.478310603703758608e-01,-1.908653117355927575e+00,-2.763055109808631449e-01,3.041962585736282879e-03,-3.434788521378624032e-02,-4.921739638758676483e-02,3.604126210971875244e-01,-7.702903891368716172e-02,-9.859728544908162862e-01,9.680136744031351270e-01,-2.181670541793487017e-01,4.398636110815143940e-01,1.699336877448857308e+00,1.660127910148792685e+00,3.503923117722473335e-01,-4.504742890475750272e-01,9.469166408047452466e-01,4.658365187894021875e-01,-1.820301513905588253e+00,1.724081999494948114e+00,-6.383907915860826954e-01,-1.797711284733049419e+00,-4.774001882202171254e-01,5.724934802787055681e-03,-7.884419096092748491e-02,-2.556222140206703686e-01,-3.869198923209157814e-01,1.821440270183611876e+00,-1.927168940184125212e-01,-1.415069930577205204e-01,1.205881896320206037e+00,2.393453685117188368e+00,-4.726609274586320852e-01,6.851205412909856796e-02,1.993918072848609446e+00,6.595507958504949197e-01,3.085601782756239309e-01,-8.010331987567491652e-01,8.087358940647049188e-01,1.304099147107849577e+00,4.865568510522216839e-01,-1.714014768394696908e+00,-6.326000397433175770e-01,1.522948867408423397e-02,-1.606371370513683117e-01,-6.759262405692593179e-01,2.768447015008787537e-01,9.361876217463243055e-01,-6.206607801720712692e-01,-6.678777381290019743e-01,-2.192829600223299646e+00,3.403522955794852645e-01,1.406296839477725769e+00,-3.050644076716866326e-01,2.495373123845353591e-01,2.892004620714094809e-01,-1.896160797318458879e+00,-1.172231237539467896e+00,6.703366039705336288e-01,-1.226003028042521592e+00,1.321603778871871304e+00,-1.454506138383324876e+00,-4.399731871661476945e-01,1.628844514016034029e-02,-2.299996802450326172e-01,-7.912061680196632585e-01,-1.300469134663669868e-01,-5.483962922559961622e-02,2.452369032217107392e-01,-1.134522023862127305e-01,-5.351660948008429841e-01,-5.104541291024602412e-01,2.887692010914430618e+00,7.120226374816065462e-01,9.516116488946514407e-01,3.634941098988034303e-01,7.971057558350326255e-01,-9.855804347268480869e-01,-4.387478979126135381e-01,-3.361842830176833274e-01,1.673940530092485890e+00,-1.274525710141713786e+00,-1.717237801503188888e-01,2.123596968127613310e-02,-2.700632827803194358e-01,-1.426197929658303165e+00,5.161709869600855649e-01,1.589038180407524647e+00,-1.394137274864709841e+00,6.083242138535044363e-01,3.363608582786027368e-01,-1.578380929424440415e+00,-2.036967196121270973e+00,1.087508208103802998e+00,-1.623567724360610809e+00,3.798673608959011738e-01,-9.825914796980615984e-01,-9.785133241513084279e-01,1.366773112751222152e+00,-5.046178448720288756e-01,6.392884883555521869e-01,-9.394773405323868509e-01,-9.468600002774066327e-02,2.515886611701171477e-02,-3.038875797422380121e-01,-7.630000407627288705e-01,7.513279419076617227e-01,-9.540401731940104657e-01,3.724743327441426555e-01,-3.877202288371489614e-01,8.515219984751448701e-02,1.683171189208500618e+00,-7.198787761734097845e-01,-8.543251085628554842e-01,-9.690711339059671081e-01,-1.082858798193993000e+00,-5.860301999214206914e-01,1.388300316001159496e-01,1.899556545920235429e-01,2.900924191232181482e-01,1.134838647464350592e+00,-1.404408125372004768e-01,-6.338752115769696882e-02,1.085125830043707010e-02,-1.030834040425991083e-01,-1.138357296304566502e+00,-3.780696268702724711e-02,-2.049528726107152365e-01,-1.576393888253272979e-01,7.147686281795372354e-01,1.029752654046986349e+00,1.272914412385034000e+00,1.007655041031190468e-01,-1.948693659443816451e+00,1.577270026908956790e+00,-4.291738185206074307e-01,-1.377059946859247930e+00,2.291955600391442152e-02,-1.099482476087383587e+00,-4.418265916944529859e-01,8.749122641905944242e-01,-2.435196597210710356e-01,-8.171502041069257649e-02,8.169800837300749714e-06,-9.529347667107493022e-03,-5.002614101474711639e-01,7.265463683352527680e-01,5.058432354310538059e-01,-8.588696376831466139e-01,-5.040649891262679594e-01,5.173012169474725530e-01,-5.404991934183750457e-01,1.209763362389675301e+00,-1.363468829655314796e+00,-8.356448351307214084e-01,-3.087159394135605139e-01,2.059700607391897961e-02,1.393273542286744604e+00,1.676947818186609040e-01,7.008618423277360732e-01,1.319631289542435026e-01,-3.990908346471971346e-01,-6.886112050167857157e-02,6.498962544816051269e-03,-6.600092542798262352e-02,-2.725916540645902941e-01,-4.817739216296633709e-01,4.529537174022146284e-01,1.054419388215694697e+00,2.416481109423910034e+00,2.162027002424685040e+00,9.518194815399088071e-01,8.214606289318395760e-01,-7.748372274750450761e-02,-5.292314784994747168e-01,-9.266990435164982332e-01,4.497157159683132788e-01,6.388376930739287918e-01,-2.877914869926920510e-03,-3.299635971523041944e-02,-3.631348715054183995e-01,-2.116547614970321345e-01,8.863072945923722648e-03,5.945379967573044024e-03,-6.825283305555783497e-02,-5.466213585182582574e-02,-5.566101975598867352e-02,-3.974616571179859781e-01,-8.441579730511289403e-01,1.336789096433358137e-01,-1.213348575292658577e-01,1.220181729346213606e+00,-5.779073552760852772e-01,3.017209886743973599e-02,7.448458616035203983e-01,2.623758865637818016e-01,-3.673399934413575929e-01,-4.534835322706223804e-01,-6.028499977086768657e-01,-2.734630697077313766e-01,-2.097145906871128798e-02,-6.212163213101263431e-02,1.423336615988957457e-02,-2.398278183684916722e-04,2.901746747538751572e-03,-8.432362183011446813e-03,1.466811508885329518e-01,-5.310663650068032648e-01,-1.535946939542519818e+00,-1.645627060573431777e+00,-8.628994281071923345e-01,-1.884105908090718817e-01,8.301981766895827342e-02,-2.011614412536999741e-01,-5.540220062270055923e-01,-5.044197791643930673e-01,-4.093484985645219898e-01,-5.372027706623953014e-01,-1.283033909419299123e-01,1.440949529495305290e-02,4.031264288046676469e-03,4.076369570529560053e-03,-9.391248408868333114e-04,0.000000000000000000e+00,-2.966668365619696827e-05,-3.332910521561710179e-03,3.715066958092034383e-02,-2.790466586324451617e-02,8.013423110109578473e-02,1.524647069618103867e-01,1.004828520693032412e-02,3.488263331182352156e-02,1.142459975358922630e-02,-4.988829012202460056e-02,-1.337611015127241065e-01,-1.371335105217798833e-01,-8.235315729585332423e-02,-5.888934419274105547e-02,-2.442673487407790930e-02,1.561385750442985301e-03,-1.603672644390013947e-04,1.351902996016266412e-05,0.000000000000000000e+00
